{"learner":{"attributes":{"scikit_learn":"{\"_estimator_type\": \"classifier\"}"},"feature_names":["name_length_normalized","word_count","avg_word_length","has_arabic","has_common_prefixes","Nationality_encoded","Risk Category_encoded","Source of Funds_encoded","name_length_bin_encoded"],"feature_types":["float","float","float","float","float","float","float","float","float"],"gradient_booster":{"model":{"gbtree_model_param":{"num_parallel_tree":"1","num_trees":"1000"},"iteration_indptr":[0,1,2,3,4,5,6,7,8,9,10,11,12,13,14,15,16,17,18,19,20,21,22,23,24,25,26,27,28,29,30,31,32,33,34,35,36,37,38,39,40,41,42,43,44,45,46,47,48,49,50,51,52,53,54,55,56,57,58,59,60,61,62,63,64,65,66,67,68,69,70,71,72,73,74,75,76,77,78,79,80,81,82,83,84,85,86,87,88,89,90,91,92,93,94,95,96,97,98,99,100,101,102,103,104,105,106,107,108,109,110,111,112,113,114,115,116,117,118,119,120,121,122,123,124,125,126,127,128,129,130,131,132,133,134,135,136,137,138,139,140,141,142,143,144,145,146,147,148,149,150,151,152,153,154,155,156,157,158,159,160,161,162,163,164,165,166,167,168,169,170,171,172,173,174,175,176,177,178,179,180,181,182,183,184,185,186,187,188,189,190,191,192,193,194,195,196,197,198,199,200,201,202,203,204,205,206,207,208,209,210,211,212,213,214,215,216,217,218,219,220,221,222,223,224,225,226,227,228,229,230,231,232,233,234,235,236,237,238,239,240,241,242,243,244,245,246,247,248,249,250,251,252,253,254,255,256,257,258,259,260,261,262,263,264,265,266,267,268,269,270,271,272,273,274,275,276,277,278,279,280,281,282,283,284,285,286,287,288,289,290,291,292,293,294,295,296,297,298,299,300,301,302,303,304,305,306,307,308,309,310,311,312,313,314,315,316,317,318,319,320,321,322,323,324,325,326,327,328,329,330,331,332,333,334,335,336,337,338,339,340,341,342,343,344,345,346,347,348,349,350,351,352,353,354,355,356,357,358,359,360,361,362,363,364,365,366,367,368,369,370,371,372,373,374,375,376,377,378,379,380,381,382,383,384,385,386,387,388,389,390,391,392,393,394,395,396,397,398,399,400,401,402,403,404,405,406,407,408,409,410,411,412,413,414,415,416,417,418,419,420,421,422,423,424,425,426,427,428,429,430,431,432,433,434,435,436,437,438,439,440,441,442,443,444,445,446,447,448,449,450,451,452,453,454,455,456,457,458,459,460,461,462,463,464,465,466,467,468,469,470,471,472,473,474,475,476,477,478,479,480,481,482,483,484,485,486,487,488,489,490,491,492,493,494,495,496,497,498,499,500,501,502,503,504,505,506,507,508,509,510,511,512,513,514,515,516,517,518,519,520,521,522,523,524,525,526,527,528,529,530,531,532,533,534,535,536,537,538,539,540,541,542,543,544,545,546,547,548,549,550,551,552,553,554,555,556,557,558,559,560,561,562,563,564,565,566,567,568,569,570,571,572,573,574,575,576,577,578,579,580,581,582,583,584,585,586,587,588,589,590,591,592,593,594,595,596,597,598,599,600,601,602,603,604,605,606,607,608,609,610,611,612,613,614,615,616,617,618,619,620,621,622,623,624,625,626,627,628,629,630,631,632,633,634,635,636,637,638,639,640,641,642,643,644,645,646,647,648,649,650,651,652,653,654,655,656,657,658,659,660,661,662,663,664,665,666,667,668,669,670,671,672,673,674,675,676,677,678,679,680,681,682,683,684,685,686,687,688,689,690,691,692,693,694,695,696,697,698,699,700,701,702,703,704,705,706,707,708,709,710,711,712,713,714,715,716,717,718,719,720,721,722,723,724,725,726,727,728,729,730,731,732,733,734,735,736,737,738,739,740,741,742,743,744,745,746,747,748,749,750,751,752,753,754,755,756,757,758,759,760,761,762,763,764,765,766,767,768,769,770,771,772,773,774,775,776,777,778,779,780,781,782,783,784,785,786,787,788,789,790,791,792,793,794,795,796,797,798,799,800,801,802,803,804,805,806,807,808,809,810,811,812,813,814,815,816,817,818,819,820,821,822,823,824,825,826,827,828,829,830,831,832,833,834,835,836,837,838,839,840,841,842,843,844,845,846,847,848,849,850,851,852,853,854,855,856,857,858,859,860,861,862,863,864,865,866,867,868,869,870,871,872,873,874,875,876,877,878,879,880,881,882,883,884,885,886,887,888,889,890,891,892,893,894,895,896,897,898,899,900,901,902,903,904,905,906,907,908,909,910,911,912,913,914,915,916,917,918,919,920,921,922,923,924,925,926,927,928,929,930,931,932,933,934,935,936,937,938,939,940,941,942,943,944,945,946,947,948,949,950,951,952,953,954,955,956,957,958,959,960,961,962,963,964,965,966,967,968,969,970,971,972,973,974,975,976,977,978,979,980,981,982,983,984,985,986,987,988,989,990,991,992,993,994,995,996,997,998,999,1000],"tree_info":[0,0,0,0,0,0,0,0,0,0,0,0,0,0,0,0,0,0,0,0,0,0,0,0,0,0,0,0,0,0,0,0,0,0,0,0,0,0,0,0,0,0,0,0,0,0,0,0,0,0,0,0,0,0,0,0,0,0,0,0,0,0,0,0,0,0,0,0,0,0,0,0,0,0,0,0,0,0,0,0,0,0,0,0,0,0,0,0,0,0,0,0,0,0,0,0,0,0,0,0,0,0,0,0,0,0,0,0,0,0,0,0,0,0,0,0,0,0,0,0,0,0,0,0,0,0,0,0,0,0,0,0,0,0,0,0,0,0,0,0,0,0,0,0,0,0,0,0,0,0,0,0,0,0,0,0,0,0,0,0,0,0,0,0,0,0,0,0,0,0,0,0,0,0,0,0,0,0,0,0,0,0,0,0,0,0,0,0,0,0,0,0,0,0,0,0,0,0,0,0,0,0,0,0,0,0,0,0,0,0,0,0,0,0,0,0,0,0,0,0,0,0,0,0,0,0,0,0,0,0,0,0,0,0,0,0,0,0,0,0,0,0,0,0,0,0,0,0,0,0,0,0,0,0,0,0,0,0,0,0,0,0,0,0,0,0,0,0,0,0,0,0,0,0,0,0,0,0,0,0,0,0,0,0,0,0,0,0,0,0,0,0,0,0,0,0,0,0,0,0,0,0,0,0,0,0,0,0,0,0,0,0,0,0,0,0,0,0,0,0,0,0,0,0,0,0,0,0,0,0,0,0,0,0,0,0,0,0,0,0,0,0,0,0,0,0,0,0,0,0,0,0,0,0,0,0,0,0,0,0,0,0,0,0,0,0,0,0,0,0,0,0,0,0,0,0,0,0,0,0,0,0,0,0,0,0,0,0,0,0,0,0,0,0,0,0,0,0,0,0,0,0,0,0,0,0,0,0,0,0,0,0,0,0,0,0,0,0,0,0,0,0,0,0,0,0,0,0,0,0,0,0,0,0,0,0,0,0,0,0,0,0,0,0,0,0,0,0,0,0,0,0,0,0,0,0,0,0,0,0,0,0,0,0,0,0,0,0,0,0,0,0,0,0,0,0,0,0,0,0,0,0,0,0,0,0,0,0,0,0,0,0,0,0,0,0,0,0,0,0,0,0,0,0,0,0,0,0,0,0,0,0,0,0,0,0,0,0,0,0,0,0,0,0,0,0,0,0,0,0,0,0,0,0,0,0,0,0,0,0,0,0,0,0,0,0,0,0,0,0,0,0,0,0,0,0,0,0,0,0,0,0,0,0,0,0,0,0,0,0,0,0,0,0,0,0,0,0,0,0,0,0,0,0,0,0,0,0,0,0,0,0,0,0,0,0,0,0,0,0,0,0,0,0,0,0,0,0,0,0,0,0,0,0,0,0,0,0,0,0,0,0,0,0,0,0,0,0,0,0,0,0,0,0,0,0,0,0,0,0,0,0,0,0,0,0,0,0,0,0,0,0,0,0,0,0,0,0,0,0,0,0,0,0,0,0,0,0,0,0,0,0,0,0,0,0,0,0,0,0,0,0,0,0,0,0,0,0,0,0,0,0,0,0,0,0,0,0,0,0,0,0,0,0,0,0,0,0,0,0,0,0,0,0,0,0,0,0,0,0,0,0,0,0,0,0,0,0,0,0,0,0,0,0,0,0,0,0,0,0,0,0,0,0,0,0,0,0,0,0,0,0,0,0,0,0,0,0,0,0,0,0,0,0,0,0,0,0,0,0,0,0,0,0,0,0,0,0,0,0,0,0,0,0,0,0,0,0,0,0,0,0,0,0,0,0,0,0,0,0,0,0,0,0,0,0,0,0,0,0,0,0,0,0,0,0,0,0,0,0,0,0,0,0,0,0,0,0,0,0,0,0,0,0,0,0,0,0,0,0,0,0,0,0,0,0,0,0,0,0,0,0,0,0,0,0,0,0,0,0,0,0,0,0,0,0,0,0,0,0,0,0,0,0,0,0,0,0,0,0,0,0,0,0,0,0,0,0,0,0,0,0,0,0,0,0,0,0,0,0,0,0,0,0,0,0,0,0,0,0,0,0,0,0,0,0,0,0,0,0,0,0,0,0,0,0,0,0,0,0,0,0,0,0,0,0,0,0,0,0,0,0,0,0,0,0,0,0,0,0,0,0,0,0,0,0,0,0,0,0,0,0,0,0,0,0,0,0,0,0,0,0,0,0,0,0,0,0,0,0,0,0,0,0,0,0,0,0,0,0,0,0,0,0,0,0,0,0,0,0],"trees":[{"base_weights":[-8.200567E-3,1.4694511E0,-6.289248E-1,1.5176538E0,3.4352764E-2,-1.6248897E0,1.5331881E0,7.0147716E-2,9.2929594E-2,-1.0847164E-2,-8.8039145E-2,8.151247E-2,4.869412E-2],"categories":[],"categories_nodes":[],"categories_segments":[],"categories_sizes":[],"default_left":[0,0,0,0,0,0,0,0,0,0,0,0,0],"id":0,"left_children":[1,3,5,7,-1,9,11,-1,-1,-1,-1,-1,-1],"loss_changes":[2.2792113E2,1.7295837E0,3.7928363E2,6.791687E-2,0E0,2.2631134E1,1.4359589E0,0E0,0E0,0E0,0E0,0E0,0E0],"parents":[2147483647,0,0,1,1,2,2,3,3,5,5,6,6],"right_children":[2,4,6,8,-1,10,12,-1,-1,-1,-1,-1,-1],"split_conditions":[-1.0653044E0,1.5214267E0,1.2889677E0,-2.4736017E-1,3.4352764E-2,-1.1043388E0,7.862635E-1,7.0147716E-2,9.2929594E-2,-1.0847164E-2,-8.8039145E-2,8.151247E-2,4.869412E-2],"split_indices":[6,5,6,8,0,5,1,0,0,0,0,0,0],"split_type":[0,0,0,0,0,0,0,0,0,0,0,0,0],"sum_hessian":[2.4648524E2,7.2508766E1,1.7397647E2,6.741559E1,5.0931735E0,1.1927952E2,5.4696957E1,5.427214E1,1.314345E1,1.07278595E1,1.0855166E2,4.4976936E1,9.720018E0],"tree_param":{"num_deleted":"0","num_feature":"9","num_nodes":"13","size_leaf_vector":"1"}},{"base_weights":[-3.3541687E-2,7.7288604E-1,-1.3505755E-1,5.104452E-1,1.0332847E0,-3.1964204E-1,-1.9022977E-2,3.3533163E-3,4.2089727E-2,6.915201E-2,2.6733676E-2,1.3421018E-3,-2.473129E-2,1.1855851E-2,-1.4636631E-2],"categories":[],"categories_nodes":[],"categories_segments":[],"categories_sizes":[],"default_left":[0,0,0,0,0,0,0,0,0,0,0,0,0,0,0],"id":1,"left_children":[1,3,5,7,9,11,13,-1,-1,-1,-1,-1,-1,-1,-1],"loss_changes":[2.0301077E1,1.367794E0,4.705363E0,2.2630792E0,1.517889E0,5.157257E0,9.613249E0,0E0,0E0,0E0,0E0,0E0,0E0,0E0,0E0],"parents":[2147483647,0,0,1,1,2,2,3,3,4,4,5,5,6,6],"right_children":[2,4,6,8,10,12,14,-1,-1,-1,-1,-1,-1,-1,-1],"split_conditions":[-1.1043388E0,-2.3330385E-2,-2.1393952E-1,-1.5182897E0,-1.30097E-1,-4.2569867E-1,1.0708418E0,3.3533163E-3,4.2089727E-2,6.915201E-2,2.6733676E-2,1.3421018E-3,-2.473129E-2,1.1855851E-2,-1.4636631E-2],"split_indices":[5,7,5,5,0,0,5,0,0,0,0,0,0,0,0],"split_type":[0,0,0,0,0,0,0,0,0,0,0,0,0,0,0],"sum_hessian":[2.4570663E2,2.6732666E1,2.1897397E2,1.47884655E1,1.1944201E1,8.384347E1,1.3513051E2,6.839255E0,7.94921E0,5.977467E0,5.9667344E0,2.8418598E1,5.5424873E1,6.9874756E1,6.5255745E1],"tree_param":{"num_deleted":"0","num_feature":"9","num_nodes":"15","size_leaf_vector":"1"}},{"base_weights":[4.3271165E-2,7.3936395E-2,-5.5454606E-1,-1.5185833E0,1.508223E0,-1.4535767E-2,-8.156388E-2,7.82339E-2,4.023803E-2],"categories":[],"categories_nodes":[],"categories_segments":[],"categories_sizes":[],"default_left":[0,0,0,0,0,0,0,0,0],"id":2,"left_children":[1,-1,3,5,7,-1,-1,-1,-1],"loss_changes":[2.0667142E2,0E0,3.40507E2,1.5633423E1,9.120331E-1,0E0,0E0,0E0,0E0],"parents":[2147483647,0,0,2,2,3,3,4,4],"right_children":[2,-1,4,6,8,-1,-1,-1,-1],"split_conditions":[-1.0653044E0,7.3936395E-2,1.2889677E0,-1.1043388E0,1.3439835E0,-1.4535767E-2,-8.156388E-2,7.82339E-2,4.023803E-2],"split_indices":[6,0,6,5,0,0,0,0,0],"split_type":[0,0,0,0,0,0,0,0,0],"sum_hessian":[2.3888066E2,6.9801735E1,1.6907892E2,1.15407104E2,5.3671814E1,1.0002613E1,1.05404495E2,4.855119E1,5.120626E0],"tree_param":{"num_deleted":"0","num_feature":"9","num_nodes":"9","size_leaf_vector":"1"}},{"base_weights":[6.9516213E-3,1.3222673E0,-5.4943085E-1,7.777155E-2,1.1437525E0,-1.4381888E0,1.3915911E0,6.217868E-2,1.6227784E-2,-7.161268E-3,-7.880326E-2,3.8780067E-2,7.338574E-2],"categories":[],"categories_nodes":[],"categories_segments":[],"categories_sizes":[],"default_left":[0,0,0,0,0,0,0,0,0,0,0,0,0],"id":3,"left_children":[1,3,5,-1,7,9,11,-1,-1,-1,-1,-1,-1],"loss_changes":[1.8128561E2,1.2859344E0,3.023254E2,0E0,3.3157196E0,2.118277E1,1.4493637E0,0E0,0E0,0E0,0E0,0E0,0E0],"parents":[2147483647,0,0,1,1,2,2,4,4,5,5,6,6],"right_children":[2,4,6,-1,8,10,12,-1,-1,-1,-1,-1,-1],"split_conditions":[-1.0653044E0,-1.9176622E-1,1.2889677E0,7.777155E-2,1.5086061E0,-1.1043388E0,-5.2593106E-1,6.217868E-2,1.6227784E-2,-7.161268E-3,-7.880326E-2,3.8780067E-2,7.338574E-2],"split_indices":[6,2,6,0,5,5,1,0,0,0,0,0,0],"split_type":[0,0,0,0,0,0,0,0,0,0,0,0,0],"sum_hessian":[2.4572661E2,7.26357E1,1.7309091E2,2.815214E1,4.4483555E1,1.18905396E2,5.418552E1,3.919011E1,5.2934446E0,1.1637982E1,1.0726742E2,7.1903286E0,4.699519E1],"tree_param":{"num_deleted":"0","num_feature":"9","num_nodes":"13","size_leaf_vector":"1"}},{"base_weights":[-3.1980377E-2,1.2151248E0,-5.463757E-1,7.5461194E-2,1.0141774E0,-6.975495E-2,1.3333328E0,1.3059578E-2,5.6011576E-2,2.743794E-2,7.0169605E-2],"categories":[],"categories_nodes":[],"categories_segments":[],"categories_sizes":[],"default_left":[0,0,0,0,0,0,0,0,0,0,0],"id":4,"left_children":[1,3,5,-1,7,-1,9,-1,-1,-1,-1],"loss_changes":[1.583106E2,2.7287674E0,2.805237E2,0E0,3.3701324E0,0E0,2.2445755E0,0E0,0E0,0E0,0E0],"parents":[2147483647,0,0,1,1,2,2,4,4,6,6],"right_children":[2,4,6,-1,8,-1,10,-1,-1,-1,-1],"split_conditions":[-1.0653044E0,-3.899348E-1,1.2889677E0,7.5461194E-2,-1.424309E0,-6.975495E-2,-5.286415E-1,1.3059578E-2,5.6011576E-2,2.743794E-2,7.0169605E-2],"split_indices":[6,2,6,0,7,0,1,0,0,0,0],"split_type":[0,0,0,0,0,0,0,0,0,0,0],"sum_hessian":[2.4474501E2,7.10729E1,1.736721E2,2.620691E1,4.4865993E1,1.1982617E2,5.3845936E1,5.9665046E0,3.889949E1,5.138142E0,4.8707794E1],"tree_param":{"num_deleted":"0","num_feature":"9","num_nodes":"11","size_leaf_vector":"1"}},{"base_weights":[-1.1689871E-2,1.1917759E0,-5.049989E-1,1.2575525E0,1.9758306E-2,-1.3484697E0,1.2549052E0,6.576458E-2,2.3846297E-2,-3.7793224E-3,-7.368706E-2,6.7815825E-2,3.5634063E-2],"categories":[],"categories_nodes":[],"categories_segments":[],"categories_sizes":[],"default_left":[0,0,0,0,0,0,0,0,0,0,0,0,0],"id":5,"left_children":[1,3,5,7,-1,9,11,-1,-1,-1,-1,-1,-1],"loss_changes":[1.4586304E2,3.2460861E0,2.6034644E2,2.3261871E0,0E0,1.8747955E1,2.1661224E0,0E0,0E0,0E0,0E0,0E0,0E0],"parents":[2147483647,0,0,1,1,2,2,3,3,5,5,6,6],"right_children":[2,4,6,8,-1,10,12,-1,-1,-1,-1,-1,-1],"split_conditions":[-1.0653044E0,1.5176413E0,1.330072E-1,1.3886465E0,1.9758306E-2,-1.1043388E0,7.862635E-1,6.576458E-2,2.3846297E-2,-3.7793224E-3,-7.368706E-2,6.7815825E-2,3.5634063E-2],"split_indices":[6,5,6,7,0,5,1,0,0,0,0,0,0],"split_type":[0,0,0,0,0,0,0,0,0,0,0,0,0],"sum_hessian":[2.4367906E2,7.043399E1,1.7324507E2,6.452729E1,5.906698E0,1.1727322E2,5.5971855E1,5.9445484E1,5.0818048E0,1.0651063E1,1.0662215E2,4.5888092E1,1.0083762E1],"tree_param":{"num_deleted":"0","num_feature":"9","num_nodes":"13","size_leaf_vector":"1"}},{"base_weights":[2.5051268E-2,1.1816312E0,-4.5663518E-1,7.09348E-2,1.0038404E0,-1.2621903E0,1.1914989E0,5.707098E-2,2.4829019E-2,-1.3062372E-3,-6.9682136E-2,3.127941E-2,6.421571E-2],"categories":[],"categories_nodes":[],"categories_segments":[],"categories_sizes":[],"default_left":[0,0,0,0,0,0,0,0,0,0,0,0,0],"id":6,"left_children":[1,3,5,-1,7,9,11,-1,-1,-1,-1,-1,-1],"loss_changes":[1.3280644E2,1.5297699E0,2.2499225E2,0E0,2.4668121E0,1.841423E1,2.1263275E0,0E0,0E0,0E0,0E0,0E0,0E0],"parents":[2147483647,0,0,1,1,2,2,4,4,5,5,6,6],"right_children":[2,4,6,-1,8,10,12,-1,-1,-1,-1,-1,-1],"split_conditions":[-1.0653044E0,-1.9176622E-1,1.2889677E0,7.09348E-2,-5.0730354E-1,-1.1043388E0,-2.708849E-1,5.707098E-2,2.4829019E-2,-1.3062372E-3,-6.9682136E-2,3.127941E-2,6.421571E-2],"split_indices":[6,2,6,0,1,5,8,0,0,0,0,0,0],"split_type":[0,0,0,0,0,0,0,0,0,0,0,0,0],"sum_hessian":[2.364166E2,6.908445E1,1.6733215E2,2.661569E1,4.2468758E1,1.1255368E2,5.477847E1,3.2424427E1,1.0044328E1,1.0934422E1,1.01619255E2,8.808956E0,4.5969513E1],"tree_param":{"num_deleted":"0","num_feature":"9","num_nodes":"13","size_leaf_vector":"1"}},{"base_weights":[-1.4808761E-3,7.046985E-1,-9.096773E-2,1.1361946E-2,8.5620016E-1,-1.5395992E-2,-3.4769052E-1,5.533826E-2,2.7004113E-2,-8.40311E-3,2.1892939E-2,7.562825E-3,-2.2420242E-2],"categories":[],"categories_nodes":[],"categories_segments":[],"categories_sizes":[],"default_left":[0,0,0,0,0,0,0,0,0,0,0,0,0],"id":7,"left_children":[1,3,5,-1,7,9,11,-1,-1,-1,-1,-1,-1],"loss_changes":[1.5098738E1,1.7492428E0,4.1084576E0,0E0,9.8941326E-1,1.1481656E1,2.488769E0,0E0,0E0,0E0,0E0,0E0,0E0],"parents":[2147483647,0,0,1,1,2,2,4,4,5,5,6,6],"right_children":[2,4,6,-1,8,10,12,-1,-1,-1,-1,-1,-1],"split_conditions":[-1.1043388E0,-5.200121E-1,1.0901971E0,1.1361946E-2,-1.30097E-1,6.346478E-1,-2.6923692E-1,5.533826E-2,2.7004113E-2,-8.40311E-3,2.1892939E-2,7.562825E-3,-2.2420242E-2],"split_indices":[5,1,5,0,0,5,8,0,0,0,0,0,0],"split_type":[0,0,0,0,0,0,0,0,0,0,0,0,0],"sum_hessian":[2.3691321E2,2.587191E1,2.1104129E2,6.8340893E0,1.903782E1,1.6386435E2,4.7176937E1,9.224821E0,9.813E0,1.2304821E2,4.0816147E1,7.839176E0,3.933776E1],"tree_param":{"num_deleted":"0","num_feature":"9","num_nodes":"13","size_leaf_vector":"1"}},{"base_weights":[1.8942667E-2,6.764542E-1,-7.123525E-2,1.5905032E-2,8.381933E-1,-2.5031576E-1,3.9895147E-2,5.122192E-2,2.9556984E-2,1.5224041E-2,-1.7319521E-2,1.3077398E-2,-9.837152E-3],"categories":[],"categories_nodes":[],"categories_segments":[],"categories_sizes":[],"default_left":[0,0,0,0,0,0,0,0,0,0,0,0,0],"id":8,"left_children":[1,3,5,-1,7,9,11,-1,-1,-1,-1,-1,-1],"loss_changes":[1.3976206E1,1.3809614E0,4.1390066E0,0E0,2.6748848E-1,4.347546E0,6.811892E0,0E0,0E0,0E0,0E0,0E0,0E0],"parents":[2147483647,0,0,1,1,2,2,4,4,5,5,6,6],"right_children":[2,4,6,-1,8,10,12,-1,-1,-1,-1,-1,-1],"split_conditions":[-1.1043388E0,-5.1692873E-1,-2.1393952E-1,1.5905032E-2,7.70406E-1,-7.2605795E-1,1.0741885E0,5.122192E-2,2.9556984E-2,1.5224041E-2,-1.7319521E-2,1.3077398E-2,-9.837152E-3],"split_indices":[5,1,5,0,1,0,5,0,0,0,0,0,0],"split_type":[0,0,0,0,0,0,0,0,0,0,0,0,0],"sum_hessian":[2.3390149E2,2.7426455E1,2.0647504E2,9.451718E0,1.7974737E1,7.858584E1,1.278892E2,8.454535E0,9.520203E0,1.1279809E1,6.730603E1,6.598113E1,6.190807E1],"tree_param":{"num_deleted":"0","num_feature":"9","num_nodes":"13","size_leaf_vector":"1"}},{"base_weights":[-1.9945178E-2,1.1257559E0,-4.854162E-1,7.1888995E-1,1.2183126E0,-1.22912E0,1.2406119E0,5.225868E-2,1.1276279E-2,3.6018413E-2,6.272783E-2,-1.8814255E-3,-6.738303E-2,2.8390646E-2,6.568439E-2],"categories":[],"categories_nodes":[],"categories_segments":[],"categories_sizes":[],"default_left":[0,0,0,0,0,0,0,0,0,0,0,0,0,0,0],"id":9,"left_children":[1,3,5,7,9,11,13,-1,-1,-1,-1,-1,-1,-1,-1],"loss_changes":[1.2597771E2,1.6944046E0,2.1711531E2,2.1931615E0,7.3768616E-2,1.6598465E1,1.7650452E0,0E0,0E0,0E0,0E0,0E0,0E0,0E0,0E0],"parents":[2147483647,0,0,1,1,2,2,3,3,4,4,5,5,6,6],"right_children":[2,4,6,8,10,12,14,-1,-1,-1,-1,-1,-1,-1,-1],"split_conditions":[-1.0653044E0,-1.0902508E0,1.2889677E0,-1.0950346E0,-1.1074224E0,-1.1043388E0,-5.268491E-1,5.225868E-2,1.1276279E-2,3.6018413E-2,6.272783E-2,-1.8814255E-3,-6.738303E-2,2.8390646E-2,6.568439E-2],"split_indices":[6,3,6,3,6,5,1,0,0,0,0,0,0,0,0],"split_type":[0,0,0,0,0,0,0,0,0,0,0,0,0,0,0],"sum_hessian":[2.342024E2,6.725175E1,1.6695064E2,1.4088361E1,5.3163387E1,1.1687844E2,5.00722E1,7.8068705E0,6.281491E0,5.02343E0,4.8139957E1,1.069516E1,1.0618328E2,5.7649875E0,4.4307213E1],"tree_param":{"num_deleted":"0","num_feature":"9","num_nodes":"15","size_leaf_vector":"1"}},{"base_weights":[-1.20876E-2,1.1060616E0,-4.7451976E-1,7.465926E-1,1.2021083E0,-1.2202106E0,1.1026028E0,5.070619E-2,1.4191501E-2,6.635796E-2,4.752538E-2,-1.2536265E-2,-6.607496E-2,6.646839E-2,4.5107923E-2],"categories":[],"categories_nodes":[],"categories_segments":[],"categories_sizes":[],"default_left":[0,0,0,0,0,0,0,0,0,0,0,0,0,0,0],"id":10,"left_children":[1,3,5,7,9,11,13,-1,-1,-1,-1,-1,-1,-1,-1],"loss_changes":[1.20631065E2,1.4592361E0,1.9542076E2,1.8207426E0,3.8175964E-1,1.0717972E1,1.2325974E0,0E0,0E0,0E0,0E0,0E0,0E0,0E0,0E0],"parents":[2147483647,0,0,1,1,2,2,3,3,4,4,5,5,6,6],"right_children":[2,4,6,8,10,12,14,-1,-1,-1,-1,-1,-1,-1,-1],"split_conditions":[-1.0653044E0,-1.0902508E0,1.330072E-1,-1.0950346E0,2.4658844E-1,-1.1043388E0,-4.185447E-1,5.070619E-2,1.4191501E-2,6.635796E-2,4.752538E-2,-1.2536265E-2,-6.607496E-2,6.646839E-2,4.5107923E-2],"split_indices":[6,3,6,3,5,5,0,0,0,0,0,0,0,0,0],"split_type":[0,0,0,0,0,0,0,0,0,0,0,0,0,0,0],"sum_hessian":[2.3128314E2,6.7259514E1,1.6402364E2,1.603169E1,5.122782E1,1.1152092E2,5.2502712E1,9.403757E0,6.6279335E0,3.136425E1,1.9863571E1,1.0877934E1,1.0064299E2,2.1991451E1,3.0511261E1],"tree_param":{"num_deleted":"0","num_feature":"9","num_nodes":"15","size_leaf_vector":"1"}},{"base_weights":[-1.860844E-2,9.8122764E-1,-4.3748602E-1,2.4802817E-2,1.0501444E0,-1.1429163E0,1.0791899E0,3.4080308E-2,5.712853E-2,-4.511315E-3,-6.2507E-2,2.225949E-2,5.7766404E-2],"categories":[],"categories_nodes":[],"categories_segments":[],"categories_sizes":[],"default_left":[0,0,0,0,0,0,0,0,0,0,0,0,0],"id":11,"left_children":[1,3,5,-1,7,9,11,-1,-1,-1,-1,-1,-1],"loss_changes":[9.601192E1,1.7424545E0,1.740588E2,0E0,1.2096939E0,1.2386597E1,1.9858704E0,0E0,0E0,0E0,0E0,0E0,0E0],"parents":[2147483647,0,0,1,1,2,2,4,4,5,5,6,6],"right_children":[2,4,6,-1,8,10,12,-1,-1,-1,-1,-1,-1],"split_conditions":[-1.0653044E0,-1.424309E0,1.2889677E0,2.4802817E-2,-1.0902508E0,-1.1043388E0,-5.268491E-1,3.4080308E-2,5.712853E-2,-4.511315E-3,-6.2507E-2,2.225949E-2,5.7766404E-2],"split_indices":[6,7,6,0,3,5,1,0,0,0,0,0,0],"split_type":[0,0,0,0,0,0,0,0,0,0,0,0,0],"sum_hessian":[2.2722493E2,6.669216E1,1.6053278E2,9.314734E0,5.7377426E1,1.09738205E2,5.0794563E1,1.3183676E1,4.4193752E1,1.031456E1,9.9423645E1,6.180105E0,4.4614456E1],"tree_param":{"num_deleted":"0","num_feature":"9","num_nodes":"13","size_leaf_vector":"1"}},{"base_weights":[-1.7163603E-2,5.782463E-1,-9.599985E-2,3.2184303E-1,4.569586E-2,-1.440218E-1,2.827717E-1,-5.7784645E-3,2.6554728E-2,-1.3431877E-2,8.8485744E-4,-5.3762277E-3,2.1982012E-2],"categories":[],"categories_nodes":[],"categories_segments":[],"categories_sizes":[],"default_left":[0,0,0,0,0,0,0,0,0,0,0,0,0],"id":12,"left_children":[1,3,5,7,-1,9,11,-1,-1,-1,-1,-1,-1],"loss_changes":[1.0681971E1,1.9963131E0,3.6926377E0,1.5836215E0,0E0,3.6089506E0,1.4510385E0,0E0,0E0,0E0,0E0,0E0,0E0],"parents":[2147483647,0,0,1,1,2,2,3,3,5,5,6,6],"right_children":[2,4,6,8,-1,10,12,-1,-1,-1,-1,-1,-1],"split_conditions":[-1.1043388E0,-1.4596134E-2,-2.3350686E-1,-4.299218E-1,4.569586E-2,2.2870013E-1,-1.3093314E0,-5.7784645E-3,2.6554728E-2,-1.3431877E-2,8.8485744E-4,-5.3762277E-3,2.1982012E-2],"split_indices":[5,7,8,0,0,5,0,0,0,0,0,0,0],"split_type":[0,0,0,0,0,0,0,0,0,0,0,0,0],"sum_hessian":[2.2538445E2,2.5612389E1,1.9977206E2,1.5631231E1,9.981158E0,1.7784415E2,2.1927917E1,5.202922E0,1.0428309E1,1.00071175E2,7.777297E1,6.376771E0,1.55511465E1],"tree_param":{"num_deleted":"0","num_feature":"9","num_nodes":"13","size_leaf_vector":"1"}},{"base_weights":[4.964845E-3,1.0846783E0,-4.3285993E-1,2.6437575E-2,1.1612353E0,-1.1225622E0,1.0663662E0,3.475132E-2,6.258511E-2,-5.6969315E-2,-3.199234E-2,2.8236944E-2,5.8190968E-2],"categories":[],"categories_nodes":[],"categories_segments":[],"categories_sizes":[],"default_left":[0,0,0,0,0,0,0,0,0,0,0,0,0],"id":13,"left_children":[1,3,5,-1,7,9,11,-1,-1,-1,-1,-1,-1],"loss_changes":[1.0752098E2,2.1787796E0,1.685386E2,0E0,1.5273972E0,1.7510986E-1,1.8605843E0,0E0,0E0,0E0,0E0,0E0,0E0],"parents":[2147483647,0,0,1,1,2,2,4,4,5,5,6,6],"right_children":[2,4,6,-1,8,10,12,-1,-1,-1,-1,-1,-1],"split_conditions":[-1.0653044E0,-1.4267274E0,1.2889677E0,2.6437575E-2,-1.0913385E0,1.2768807E-1,-2.708849E-1,3.475132E-2,6.258511E-2,-5.6969315E-2,-3.199234E-2,2.8236944E-2,5.8190968E-2],"split_indices":[6,7,6,0,3,6,8,0,0,0,0,0,0],"split_type":[0,0,0,0,0,0,0,0,0,0,0,0,0],"sum_hessian":[2.2545596E2,6.462002E1,1.6083594E2,8.778762E0,5.584126E1,1.1033075E2,5.050519E1,1.0485956E1,4.5355305E1,1.0530033E2,5.030423E0,9.321092E0,4.11841E1],"tree_param":{"num_deleted":"0","num_feature":"9","num_nodes":"13","size_leaf_vector":"1"}},{"base_weights":[7.5373994E-3,9.409546E-1,-3.8709784E-1,1.0504572E0,5.940111E-1,-1.0835032E0,1.0559146E0,3.575919E-2,5.901871E-2,4.9478367E-2,1.7743615E-2,-4.633528E-3,-5.9907127E-2,6.40731E-2,4.2924743E-2],"categories":[],"categories_nodes":[],"categories_segments":[],"categories_sizes":[],"default_left":[0,0,0,0,0,0,0,0,0,0,0,0,0,0,0],"id":14,"left_children":[1,3,5,7,9,11,13,-1,-1,-1,-1,-1,-1,-1,-1],"loss_changes":[8.2065445E1,1.8910065E0,1.5851297E2,1.2908669E0,1.3687906E0,1.1942657E1,1.1921959E0,0E0,0E0,0E0,0E0,0E0,0E0,0E0,0E0],"parents":[2147483647,0,0,1,1,2,2,3,3,4,4,5,5,6,6],"right_children":[2,4,6,8,10,12,14,-1,-1,-1,-1,-1,-1,-1,-1],"split_conditions":[-1.0653044E0,-1.0887072E0,1.2889677E0,-1.1025691E0,-6.507903E-1,-1.1043388E0,1.313094E0,3.575919E-2,5.901871E-2,4.9478367E-2,1.7743615E-2,-4.633528E-3,-5.9907127E-2,6.40731E-2,4.2924743E-2],"split_indices":[6,6,6,6,5,5,6,0,0,0,0,0,0,0,0],"split_type":[0,0,0,0,0,0,0,0,0,0,0,0,0,0,0],"sum_hessian":[2.2079756E2,6.519936E1,1.5559819E2,4.8016586E1,1.718278E1,1.0511722E2,5.048098E1,1.5226599E1,3.2789986E1,5.2917404E0,1.189104E1,1.10883665E1,9.402885E1,2.0999037E1,2.9481943E1],"tree_param":{"num_deleted":"0","num_feature":"9","num_nodes":"15","size_leaf_vector":"1"}},{"base_weights":[-1.4071329E-2,8.855523E-1,-3.9550075E-1,7.692068E-1,6.273113E-2,-1.0515909E0,1.0470918E0,4.474629E-2,1.9963888E-2,3.4010372E-4,-5.8421094E-2,3.8452655E-2,5.97965E-2],"categories":[],"categories_nodes":[],"categories_segments":[],"categories_sizes":[],"default_left":[0,0,0,0,0,0,0,0,0,0,0,0,0],"id":15,"left_children":[1,3,5,7,-1,9,11,-1,-1,-1,-1,-1,-1],"loss_changes":[7.608197E1,1.8698807E0,1.484465E2,2.0974178E0,0E0,1.3301804E1,1.115036E0,0E0,0E0,0E0,0E0,0E0,0E0],"parents":[2147483647,0,0,1,1,2,2,3,3,5,5,6,6],"right_children":[2,4,6,8,-1,10,12,-1,-1,-1,-1,-1,-1],"split_conditions":[-1.0653044E0,-2.4736017E-1,1.2889677E0,-1.0887072E0,6.273113E-2,-1.1043388E0,-2.2667344E-1,4.474629E-2,1.9963888E-2,3.4010372E-4,-5.8421094E-2,3.8452655E-2,5.97965E-2],"split_indices":[6,8,6,6,0,5,5,0,0,0,0,0,0],"split_type":[0,0,0,0,0,0,0,0,0,0,0,0,0],"sum_hessian":[2.1970029E2,6.502153E1,1.5467876E2,5.1781986E1,1.3239544E1,1.0650939E2,4.816936E1,3.7588497E1,1.4193491E1,1.0681896E1,9.582749E1,1.894535E1,2.9224009E1],"tree_param":{"num_deleted":"0","num_feature":"9","num_nodes":"13","size_leaf_vector":"1"}},{"base_weights":[2.45506E-2,9.149259E-1,-3.5547623E-1,6.065916E-2,7.012205E-1,-9.8970973E-1,1.0093513E0,1.3313891E-2,4.0853247E-2,-5.0968286E-2,-2.955085E-2,6.3496694E-2,4.105715E-2],"categories":[],"categories_nodes":[],"categories_segments":[],"categories_sizes":[],"default_left":[0,0,0,0,0,0,0,0,0,0,0,0,0],"id":16,"left_children":[1,3,5,-1,7,9,11,-1,-1,-1,-1,-1,-1],"loss_changes":[7.1622055E1,3.1846886E0,1.2945497E2,0E0,1.7602329E0,6.014404E-1,1.2905426E0,0E0,0E0,0E0,0E0,0E0,0E0],"parents":[2147483647,0,0,1,1,2,2,4,4,5,5,6,6],"right_children":[2,4,6,-1,8,10,12,-1,-1,-1,-1,-1,-1],"split_conditions":[-1.0653044E0,-1.9176622E-1,1.2889677E0,6.065916E-2,-7.4408394E-1,1.3851049E0,-4.2569867E-1,1.3313891E-2,4.0853247E-2,-5.0968286E-2,-2.955085E-2,6.3496694E-2,4.105715E-2],"split_indices":[6,2,6,0,7,7,0,0,0,0,0,0,0],"split_type":[0,0,0,0,0,0,0,0,0,0,0,0,0],"sum_hessian":[2.0970885E2,6.231105E1,1.473978E2,2.4057869E1,3.825318E1,1.0082118E2,4.657662E1,8.7393875E0,2.9513794E1,9.239203E1,8.429154E0,1.7122416E1,2.9454205E1],"tree_param":{"num_deleted":"0","num_feature":"9","num_nodes":"13","size_leaf_vector":"1"}},{"base_weights":[2.9857954E-2,8.9552146E-1,-3.2211918E-1,9.761643E-1,2.595734E-3,-9.349257E-1,9.55588E-1,2.685741E-2,5.4134984E-2,2.041962E-4,-5.296435E-2,1.6989548E-2,5.194966E-2],"categories":[],"categories_nodes":[],"categories_segments":[],"categories_sizes":[],"default_left":[0,0,0,0,0,0,0,0,0,0,0,0,0],"id":17,"left_children":[1,3,5,7,-1,9,11,-1,-1,-1,-1,-1,-1],"loss_changes":[6.3542236E1,4.0498047E0,1.1702924E2,1.9888763E0,0E0,1.1769608E1,2.141735E0,0E0,0E0,0E0,0E0,0E0,0E0],"parents":[2147483647,0,0,1,1,2,2,3,3,5,5,6,6],"right_children":[2,4,6,8,-1,10,12,-1,-1,-1,-1,-1,-1],"split_conditions":[-1.0653044E0,1.5176413E0,1.2889677E0,-1.0902508E0,2.595734E-3,-1.1043388E0,-5.2593106E-1,2.685741E-2,5.4134984E-2,2.041962E-4,-5.296435E-2,1.6989548E-2,5.194966E-2],"split_indices":[6,5,6,3,0,5,1,0,0,0,0,0,0],"split_type":[0,0,0,0,0,0,0,0,0,0,0,0,0],"sum_hessian":[2.0659784E2,5.927379E1,1.4732405E2,5.3958595E1,5.315192E0,9.975056E1,4.75735E1,1.1716914E1,4.2241684E1,1.177894E1,8.797162E1,6.2801275E0,4.1293373E1],"tree_param":{"num_deleted":"0","num_feature":"9","num_nodes":"13","size_leaf_vector":"1"}},{"base_weights":[-9.504579E-3,8.0758333E-1,-3.6020222E-1,5.7055708E-2,6.0435325E-1,-9.65149E-1,9.40869E-1,3.6173042E-2,-6.254054E-4,-4.9398933E-2,-2.2418067E-2,5.5576157E-2,3.3896066E-2],"categories":[],"categories_nodes":[],"categories_segments":[],"categories_sizes":[],"default_left":[0,0,0,0,0,0,0,0,0,0,0,0,0],"id":18,"left_children":[1,3,5,-1,7,9,11,-1,-1,-1,-1,-1,-1],"loss_changes":[6.0126377E1,3.5818787E0,1.16447945E2,0E0,3.0422468E0,7.4507904E-1,1.35989E0,0E0,0E0,0E0,0E0,0E0,0E0],"parents":[2147483647,0,0,1,1,2,2,4,4,5,5,6,6],"right_children":[2,4,6,-1,8,10,12,-1,-1,-1,-1,-1,-1],"split_conditions":[-1.0653044E0,-3.899348E-1,1.2889677E0,5.7055708E-2,1.3788105E0,1.2608613E-1,-1.290581E-1,3.6173042E-2,-6.254054E-4,-4.9398933E-2,-2.2418067E-2,5.5576157E-2,3.3896066E-2],"split_indices":[6,2,6,0,7,6,0,0,0,0,0,0,0],"split_type":[0,0,0,0,0,0,0,0,0,0,0,0,0],"sum_hessian":[2.0781284E2,6.2017025E1,1.457958E2,2.1733774E1,4.0283253E1,9.969825E1,4.609756E1,3.361906E1,6.6641927E0,9.460711E1,5.091136E0,2.5997747E1,2.0099815E1],"tree_param":{"num_deleted":"0","num_feature":"9","num_nodes":"13","size_leaf_vector":"1"}},{"base_weights":[1.1525674E-2,8.208498E-1,-3.381172E-1,1.0695218E0,6.612483E-1,-9.331138E-1,9.295064E-1,6.194188E-2,3.0867422E-2,3.9131857E-2,-1.8515183E-3,-4.814654E-2,-2.9723644E-2,5.849285E-2,3.616337E-2],"categories":[],"categories_nodes":[],"categories_segments":[],"categories_sizes":[],"default_left":[0,0,0,0,0,0,0,0,0,0,0,0,0,0,0],"id":19,"left_children":[1,3,5,7,9,11,13,-1,-1,-1,-1,-1,-1,-1,-1],"loss_changes":[5.7537823E1,1.7271919E0,1.0797829E2,9.469776E-1,3.417776E0,4.084854E-1,1.427433E0,0E0,0E0,0E0,0E0,0E0,0E0,0E0,0E0],"parents":[2147483647,0,0,1,1,2,2,3,3,4,4,5,5,6,6],"right_children":[2,4,6,8,10,12,14,-1,-1,-1,-1,-1,-1,-1,-1],"split_conditions":[-1.0653044E0,-3.899348E-1,1.2889677E0,7.9168445E-1,1.3788105E0,1.3851049E0,-4.185447E-1,6.194188E-2,3.0867422E-2,3.9131857E-2,-1.8515183E-3,-4.814654E-2,-2.9723644E-2,5.849285E-2,3.616337E-2],"split_indices":[6,2,6,1,7,7,0,0,0,0,0,0,0,0,0],"split_type":[0,0,0,0,0,0,0,0,0,0,0,0,0,0,0],"sum_hessian":[2.0135144E2,6.0338123E1,1.4101332E2,2.1358553E1,3.8979572E1,9.614753E1,4.4865795E1,1.4273946E1,7.084607E0,3.310397E1,5.8756027E0,8.667259E1,9.474937E0,1.8561693E1,2.63041E1],"tree_param":{"num_deleted":"0","num_feature":"9","num_nodes":"15","size_leaf_vector":"1"}},{"base_weights":[4.3008034E-3,7.259014E-1,-3.2199612E-1,3.1638876E-1,8.3618927E-1,-9.070963E-1,8.573036E-1,3.386918E-2,-1.2894704E-2,5.0032634E-2,2.9099816E-2,7.1018405E-4,-5.1092084E-2,1.5665757E-2,4.677951E-2],"categories":[],"categories_nodes":[],"categories_segments":[],"categories_sizes":[],"default_left":[0,0,0,0,0,0,0,0,0,0,0,0,0,0,0],"id":20,"left_children":[1,3,5,7,9,11,13,-1,-1,-1,-1,-1,-1,-1,-1],"loss_changes":[4.763751E1,2.5806618E0,9.691679E1,3.2792053E0,1.4670143E0,9.910721E0,1.6964455E0,0E0,0E0,0E0,0E0,0E0,0E0,0E0,0E0],"parents":[2147483647,0,0,1,1,2,2,3,3,4,4,5,5,6,6],"right_children":[2,4,6,8,10,12,14,-1,-1,-1,-1,-1,-1,-1,-1],"split_conditions":[-1.0653044E0,-1.0902508E0,1.2889677E0,-1.0950346E0,2.2730957E-1,-1.1043388E0,-5.2593106E-1,3.386918E-2,-1.2894704E-2,5.0032634E-2,2.9099816E-2,7.1018405E-4,-5.1092084E-2,1.5665757E-2,4.677951E-2],"split_indices":[6,3,6,3,5,5,1,0,0,0,0,0,0,0,0],"split_type":[0,0,0,0,0,0,0,0,0,0,0,0,0,0,0],"sum_hessian":[2.0032747E2,6.1997124E1,1.3833034E2,1.397499E1,4.8022133E1,9.26123E1,4.571804E1,8.470742E0,5.5042477E0,2.737431E1,2.0647821E1,1.0354154E1,8.225815E1,6.380957E0,3.9337086E1],"tree_param":{"num_deleted":"0","num_feature":"9","num_nodes":"15","size_leaf_vector":"1"}},{"base_weights":[-3.6246555E-3,4.5225003E-1,-6.903967E-2,2.6545063E-1,3.4929078E-2,2.974193E-1,-1.0792532E-1,2.6935592E-2,-1.004091E-2,-5.771003E-3,2.698128E-2,-6.5359944E-3,2.1787114E-2],"categories":[],"categories_nodes":[],"categories_segments":[],"categories_sizes":[],"default_left":[0,0,0,0,0,0,0,0,0,0,0,0,0],"id":21,"left_children":[1,3,5,7,-1,9,11,-1,-1,-1,-1,-1,-1],"loss_changes":[5.86435E0,9.501195E-1,2.4820452E0,2.1019363E0,0E0,1.738107E0,1.9922813E0,0E0,0E0,0E0,0E0,0E0,0E0],"parents":[2147483647,0,0,1,1,2,2,3,3,5,5,6,6],"right_children":[2,4,6,8,-1,10,12,-1,-1,-1,-1,-1,-1],"split_conditions":[-1.1043388E0,-2.5707036E-1,-1.0967256E0,-1.5131146E0,3.4929078E-2,-2.6205274E-1,1.7308956E0,2.6935592E-2,-1.004091E-2,-5.771003E-3,2.698128E-2,-6.5359944E-3,2.1787114E-2],"split_indices":[5,8,3,5,0,8,2,0,0,0,0,0,0],"split_type":[0,0,0,0,0,0,0,0,0,0,0,0,0],"sum_hessian":[1.9460432E2,2.3678217E1,1.7092612E2,1.4647933E1,9.030283E0,1.5759523E1,1.551666E2,9.137466E0,5.510466E0,6.020713E0,9.738811E0,1.4965164E2,5.514945E0],"tree_param":{"num_deleted":"0","num_feature":"9","num_nodes":"13","size_leaf_vector":"1"}},{"base_weights":[8.359438E-3,7.9603726E-1,-3.2796186E-1,3.7428856E-1,9.077482E-1,-8.7100345E-1,8.3465916E-1,4.0110435E-2,-1.1715956E-2,4.834364E-2,2.6590934E-2,-3.8939775E-3,-4.891208E-2,4.5426972E-2,1.3192194E-2],"categories":[],"categories_nodes":[],"categories_segments":[],"categories_sizes":[],"default_left":[0,0,0,0,0,0,0,0,0,0,0,0,0,0,0],"id":22,"left_children":[1,3,5,7,9,11,13,-1,-1,-1,-1,-1,-1,-1,-1],"loss_changes":[5.193396E1,2.423771E0,8.747469E1,3.830092E0,5.00927E-1,7.9311066E0,1.6266308E0,0E0,0E0,0E0,0E0,0E0,0E0,0E0,0E0],"parents":[2147483647,0,0,1,1,2,2,3,3,4,4,5,5,6,6],"right_children":[2,4,6,8,10,12,14,-1,-1,-1,-1,-1,-1,-1,-1],"split_conditions":[-1.0653044E0,-1.0902508E0,1.2889677E0,-1.0950346E0,4.6102816E-1,-1.4963483E0,1.5100201E0,4.0110435E-2,-1.1715956E-2,4.834364E-2,2.6590934E-2,-3.8939775E-3,-4.891208E-2,4.5426972E-2,1.3192194E-2],"split_indices":[6,3,6,3,0,5,5,0,0,0,0,0,0,0,0],"split_type":[0,0,0,0,0,0,0,0,0,0,0,0,0,0,0],"sum_hessian":[1.940562E2,5.76562E1,1.364E2,1.2984728E1,4.467147E1,9.314452E1,4.3255478E1,7.4373345E0,5.547394E0,3.724222E1,7.4292493E0,1.1299631E1,8.184489E1,3.7774673E1,5.480803E0],"tree_param":{"num_deleted":"0","num_feature":"9","num_nodes":"15","size_leaf_vector":"1"}},{"base_weights":[-4.1435384E-3,7.889905E-1,-3.415475E-1,8.721375E-1,1.6034411E-2,-8.895882E-1,8.013413E-1,5.162547E-2,2.9553527E-2,-7.625402E-3,-4.910408E-2,4.4662975E-2,1.6242847E-2],"categories":[],"categories_nodes":[],"categories_segments":[],"categories_sizes":[],"default_left":[0,0,0,0,0,0,0,0,0,0,0,0,0],"id":23,"left_children":[1,3,5,7,-1,9,11,-1,-1,-1,-1,-1,-1],"loss_changes":[5.1919907E1,1.9749985E0,8.596161E1,1.5800323E0,0E0,6.154091E0,1.6648674E0,0E0,0E0,0E0,0E0,0E0,0E0],"parents":[2147483647,0,0,1,1,2,2,3,3,5,5,6,6],"right_children":[2,4,6,8,-1,10,12,-1,-1,-1,-1,-1,-1],"split_conditions":[-1.0653044E0,-1.0847476E0,1.2889677E0,2.4658844E-1,1.6034411E-2,-1.1043388E0,7.862635E-1,5.162547E-2,2.9553527E-2,-7.625402E-3,-4.910408E-2,4.4662975E-2,1.6242847E-2],"split_indices":[6,6,6,5,0,5,1,0,0,0,0,0,0],"split_type":[0,0,0,0,0,0,0,0,0,0,0,0,0],"sum_hessian":[1.9200882E2,5.6904716E1,1.351041E2,4.759237E1,9.312349E0,9.146583E1,4.3638275E1,2.86001E1,1.8992268E1,1.0493328E1,8.0972496E1,3.5848152E1,7.7901216E0],"tree_param":{"num_deleted":"0","num_feature":"9","num_nodes":"13","size_leaf_vector":"1"}},{"base_weights":[-3.002728E-3,4.563168E-1,-6.682902E-2,4.3751826E-3,6.053429E-1,-1.0254645E-2,-4.0503073E-1,4.251055E-2,1.3262555E-2,-1.0621454E-2,7.5681345E-3,-2.7155438E-2,2.784112E-3],"categories":[],"categories_nodes":[],"categories_segments":[],"categories_sizes":[],"default_left":[0,0,0,0,0,0,0,0,0,0,0,0,0],"id":24,"left_children":[1,3,5,-1,7,9,11,-1,-1,-1,-1,-1,-1],"loss_changes":[5.57435E0,1.2221212E0,3.1893008E0,0E0,1.1363883E0,4.7376933E0,1.550149E0,0E0,0E0,0E0,0E0,0E0,0E0],"parents":[2147483647,0,0,1,1,2,2,4,4,5,5,6,6],"right_children":[2,4,6,-1,8,10,12,-1,-1,-1,-1,-1,-1],"split_conditions":[-1.1043388E0,-1.081276E0,1.5086061E0,4.3751826E-3,9.1973555E-1,-2.1292895E-1,-2.5104967E-1,4.251055E-2,1.3262555E-2,-1.0621454E-2,7.5681345E-3,-2.7155438E-2,2.784112E-3],"split_indices":[5,3,5,0,3,5,8,0,0,0,0,0,0],"split_type":[0,0,0,0,0,0,0,0,0,0,0,0,0],"sum_hessian":[1.8810254E2,2.2199158E1,1.6590338E2,6.8453374E0,1.5353821E1,1.4301086E2,2.289253E1,8.054552E0,7.2992687E0,6.3394016E1,7.9616844E1,1.747603E1,5.4164996E0],"tree_param":{"num_deleted":"0","num_feature":"9","num_nodes":"13","size_leaf_vector":"1"}},{"base_weights":[2.1984208E-2,6.9470567E-1,-2.774101E-1,5.656424E-1,5.2530747E-2,-8.1024194E-1,7.817399E-1,8.604908E-4,3.5538744E-2,-1.0215499E-3,-4.6319935E-2,3.298481E-2,5.2966446E-2],"categories":[],"categories_nodes":[],"categories_segments":[],"categories_sizes":[],"default_left":[0,0,0,0,0,0,0,0,0,0,0,0,0],"id":25,"left_children":[1,3,5,7,-1,9,11,-1,-1,-1,-1,-1,-1],"loss_changes":[3.809054E1,2.0808048E0,7.452199E1,3.5619621E0,0E0,8.017403E0,8.029728E-1,0E0,0E0,0E0,0E0,0E0,0E0],"parents":[2147483647,0,0,1,1,2,2,3,3,5,5,6,6],"right_children":[2,4,6,8,-1,10,12,-1,-1,-1,-1,-1,-1],"split_conditions":[-1.0653044E0,-2.4950649E-1,1.2889677E0,-1.1025691E0,5.2530747E-2,-1.1043388E0,-2.4986988E-1,8.604908E-4,3.5538744E-2,-1.0215499E-3,-4.6319935E-2,3.298481E-2,5.2966446E-2],"split_indices":[6,8,6,6,0,5,8,0,0,0,0,0,0],"split_type":[0,0,0,0,0,0,0,0,0,0,0,0,0],"sum_hessian":[1.8716354E2,5.7236378E1,1.2992715E2,4.3904568E1,1.333181E1,8.659725E1,4.3329906E1,9.421355E0,3.4483215E1,1.1253652E1,7.5343605E1,3.2442772E1,1.0887133E1],"tree_param":{"num_deleted":"0","num_feature":"9","num_nodes":"13","size_leaf_vector":"1"}},{"base_weights":[-4.44951E-3,6.8093014E-1,-3.1056437E-1,5.374222E-1,5.4506965E-2,-8.2920337E-1,7.071808E-1,3.167986E-2,-4.809229E-3,-5.351001E-3,-4.668208E-2,1.8020573E-3,4.0211525E-2],"categories":[],"categories_nodes":[],"categories_segments":[],"categories_sizes":[],"default_left":[0,0,0,0,0,0,0,0,0,0,0,0,0],"id":26,"left_children":[1,3,5,7,-1,9,11,-1,-1,-1,-1,-1,-1],"loss_changes":[3.843075E1,2.7353325E0,6.741682E1,2.7326412E0,0E0,6.260601E0,2.7899952E0,0E0,0E0,0E0,0E0,0E0,0E0],"parents":[2147483647,0,0,1,1,2,2,3,3,5,5,6,6],"right_children":[2,4,6,8,-1,10,12,-1,-1,-1,-1,-1,-1],"split_conditions":[-1.0653044E0,-2.4950649E-1,1.330072E-1,1.512525E0,5.4506965E-2,-1.1043388E0,-5.268491E-1,3.167986E-2,-4.809229E-3,-5.351001E-3,-4.668208E-2,1.8020573E-3,4.0211525E-2],"split_indices":[6,8,6,5,0,5,1,0,0,0,0,0,0],"split_type":[0,0,0,0,0,0,0,0,0,0,0,0,0],"sum_hessian":[1.8116582E2,5.5555256E1,1.2561056E2,4.2843525E1,1.271173E1,8.333077E1,4.2279785E1,3.7197365E1,5.646162E0,1.0784102E1,7.254667E1,5.5146937E0,3.676509E1],"tree_param":{"num_deleted":"0","num_feature":"9","num_nodes":"13","size_leaf_vector":"1"}},{"base_weights":[-1.9540915E-2,6.4110386E-1,-3.1142572E-1,1.9640088E-1,7.595466E-1,-7.9481596E-1,6.904754E-1,2.4457775E-2,-1.1411889E-2,2.7984506E-2,4.596382E-2,-4.4061385E-2,-3.0850789E-2,4.9825124E-2,2.3407402E-2],"categories":[],"categories_nodes":[],"categories_segments":[],"categories_sizes":[],"default_left":[0,0,0,0,0,0,0,0,0,0,0,0,0,0,0],"id":27,"left_children":[1,3,5,7,9,11,13,-1,-1,-1,-1,-1,-1,-1,-1],"loss_changes":[3.59219E1,2.8580437E0,6.3100727E1,1.7720999E0,9.136162E-1,8.0196E-1,2.4298363E0,0E0,0E0,0E0,0E0,0E0,0E0,0E0,0E0],"parents":[2147483647,0,0,1,1,2,2,3,3,4,4,5,5,6,6],"right_children":[2,4,6,8,10,12,14,-1,-1,-1,-1,-1,-1,-1,-1],"split_conditions":[-1.0653044E0,-1.0913385E0,1.2889677E0,-1.0955244E0,-4.1076198E-1,1.4612854E-1,-4.216582E-1,2.4457775E-2,-1.1411889E-2,2.7984506E-2,4.596382E-2,-4.4061385E-2,-3.0850789E-2,4.9825124E-2,2.3407402E-2],"split_indices":[6,3,6,3,0,2,0,0,0,0,0,0,0,0,0],"split_type":[0,0,0,0,0,0,0,0,0,0,0,0,0,0,0],"sum_hessian":[1.8425044E2,5.6093468E1,1.2815698E2,1.2356851E1,4.3736618E1,8.6587524E1,4.1569454E1,7.2243214E0,5.132529E0,2.1428686E1,2.2307932E1,5.5606316E1,3.098121E1,1.6026844E1,2.554261E1],"tree_param":{"num_deleted":"0","num_feature":"9","num_nodes":"15","size_leaf_vector":"1"}},{"base_weights":[-5.1317424E-2,5.429639E-1,-3.2044646E-1,1.846478E-1,6.483964E-1,-8.1061083E-1,6.798631E-1,2.5698572E-2,-1.3552274E-2,8.06722E-3,3.613827E-2,-2.6277879E-3,-4.591418E-2,4.523238E-2,1.8077476E-2],"categories":[],"categories_nodes":[],"categories_segments":[],"categories_sizes":[],"default_left":[0,0,0,0,0,0,0,0,0,0,0,0,0,0,0],"id":28,"left_children":[1,3,5,7,9,11,13,-1,-1,-1,-1,-1,-1,-1,-1],"loss_changes":[2.8646736E1,1.9906311E0,6.093913E1,2.255042E0,1.4323483E0,6.735672E0,2.6099434E0,0E0,0E0,0E0,0E0,0E0,0E0,0E0,0E0],"parents":[2147483647,0,0,1,1,2,2,3,3,4,4,5,5,6,6],"right_children":[2,4,6,8,10,12,14,-1,-1,-1,-1,-1,-1,-1,-1],"split_conditions":[-1.0653044E0,-1.0902508E0,1.2889677E0,-1.0950346E0,-1.424309E0,-1.4963483E0,-1.290581E-1,2.5698572E-2,-1.3552274E-2,8.06722E-3,3.613827E-2,-2.6277879E-3,-4.591418E-2,4.523238E-2,1.8077476E-2],"split_indices":[6,3,6,3,7,5,0,0,0,0,0,0,0,0,0],"split_type":[0,0,0,0,0,0,0,0,0,0,0,0,0,0,0],"sum_hessian":[1.7702322E2,5.486181E1,1.22161415E2,1.3098249E1,4.1763557E1,8.2114105E1,4.004731E1,7.5291443E0,5.5691047E0,5.9520874E0,3.581147E1,1.03978195E1,7.1716286E1,2.2392393E1,1.7654917E1],"tree_param":{"num_deleted":"0","num_feature":"9","num_nodes":"15","size_leaf_vector":"1"}},{"base_weights":[1.3042732E-2,6.958115E-1,-2.2735208E-1,8.386304E-1,3.5054502E-1,-6.297247E-1,6.501512E-1,1.8226314E-2,4.6972744E-2,3.559867E-2,-4.931118E-3,1.1387768E-2,-3.682332E-2,4.6122566E-2,2.1543778E-2],"categories":[],"categories_nodes":[],"categories_segments":[],"categories_sizes":[],"default_left":[0,0,0,0,0,0,0,0,0,0,0,0,0,0,0],"id":29,"left_children":[1,3,5,7,9,11,13,-1,-1,-1,-1,-1,-1,-1,-1],"loss_changes":[2.8800352E1,1.9589195E0,4.624556E1,1.1681061E0,2.5194588E0,8.360706E0,2.0687714E0,0E0,0E0,0E0,0E0,0E0,0E0,0E0,0E0],"parents":[2147483647,0,0,1,1,2,2,3,3,4,4,5,5,6,6],"right_children":[2,4,6,8,10,12,14,-1,-1,-1,-1,-1,-1,-1,-1],"split_conditions":[-1.0842226E0,6.598684E-1,1.2889677E0,-1.0913385E0,1.3716732E-1,-1.5075594E0,-4.185447E-1,1.8226314E-2,4.6972744E-2,3.559867E-2,-4.931118E-3,1.1387768E-2,-3.682332E-2,4.6122566E-2,2.1543778E-2],"split_indices":[6,5,6,3,2,5,0,0,0,0,0,0,0,0,0],"split_type":[0,0,0,0,0,0,0,0,0,0,0,0,0,0,0],"sum_hessian":[1.7350465E2,4.468786E1,1.288168E2,3.0600908E1,1.4086949E1,8.851244E1,4.0304356E1,6.1758475E0,2.442506E1,7.4816484E0,6.6053014E0,9.6730385E0,7.88394E1,1.6547983E1,2.3756372E1],"tree_param":{"num_deleted":"0","num_feature":"9","num_nodes":"15","size_leaf_vector":"1"}},{"base_weights":[-1.6889483E-2,5.721205E-1,-2.7736178E-1,3.668654E-1,8.774298E-1,-7.5190353E-1,6.630376E-1,2.7258186E-2,-3.181148E-3,5.7615627E-2,3.4769233E-2,2.365589E-3,-4.4156976E-2,5.234771E-2,2.129114E-2],"categories":[],"categories_nodes":[],"categories_segments":[],"categories_sizes":[],"default_left":[0,0,0,0,0,0,0,0,0,0,0,0,0,0,0],"id":30,"left_children":[1,3,5,7,9,11,13,-1,-1,-1,-1,-1,-1,-1,-1],"loss_changes":[2.6871836E1,3.0442257E0,5.4675175E1,2.632031E0,2.4334526E-1,8.553768E0,3.3105812E0,0E0,0E0,0E0,0E0,0E0,0E0,0E0,0E0],"parents":[2147483647,0,0,1,1,2,2,3,3,4,4,5,5,6,6],"right_children":[2,4,6,8,10,12,14,-1,-1,-1,-1,-1,-1,-1,-1],"split_conditions":[-1.0653044E0,-2.554029E-1,1.2889677E0,-2.6045159E-1,-2.50885E-1,-1.1043388E0,-4.2569867E-1,2.7258186E-2,-3.181148E-3,5.7615627E-2,3.4769233E-2,2.365589E-3,-4.4156976E-2,5.234771E-2,2.129114E-2],"split_indices":[6,8,6,8,8,5,0,0,0,0,0,0,0,0,0],"split_type":[0,0,0,0,0,0,0,0,0,0,0,0,0,0,0],"sum_hessian":[1.731169E2,5.2715054E1,1.2040184E2,3.2839283E1,1.987577E1,8.015479E1,4.0247047E1,2.3033115E1,9.806168E0,5.795269E0,1.40805025E1,1.1395669E1,6.8759125E1,1.4067005E1,2.6180042E1],"tree_param":{"num_deleted":"0","num_feature":"9","num_nodes":"15","size_leaf_vector":"1"}},{"base_weights":[2.607448E-2,9.564259E-2,-2.6048434E-1,4.7409814E-3,3.6455464E-1,-6.897516E-2,-4.9465883E-1,1.5887529E-2,-4.9360464E-3,3.4879755E-2,4.220838E-3,-2.2622908E-2,1.0715883E-2,-4.2028293E-2,-9.097234E-3],"categories":[],"categories_nodes":[],"categories_segments":[],"categories_sizes":[],"default_left":[0,0,0,0,0,0,0,0,0,0,0,0,0,0,0],"id":31,"left_children":[1,3,5,7,9,11,13,-1,-1,-1,-1,-1,-1,-1,-1],"loss_changes":[3.4080598E0,3.3541608E0,1.4646525E0,3.3869214E0,3.1757336E0,2.2204983E0,1.455893E0,0E0,0E0,0E0,0E0,0E0,0E0,0E0,0E0],"parents":[2147483647,0,0,1,1,2,2,3,3,4,4,5,5,6,6],"right_children":[2,4,6,8,10,12,14,-1,-1,-1,-1,-1,-1,-1,-1],"split_conditions":[1.0901971E0,2.2870013E-1,9.1216105E-1,-1.093254E0,6.598684E-1,-1.0899117E0,9.202189E-1,1.5887529E-2,-4.9360464E-3,3.4879755E-2,4.220838E-3,-2.2622908E-2,1.0715883E-2,-4.2028293E-2,-9.097234E-3],"split_indices":[5,5,3,5,5,3,3,0,0,0,0,0,0,0,0],"split_type":[0,0,0,0,0,0,0,0,0,0,0,0,0,0,0],"sum_hessian":[1.6870586E2,1.3628586E2,3.2419987E1,1.0261579E2,3.367007E1,1.8546833E1,1.3873156E1,2.4977787E1,7.763801E1,1.4701766E1,1.8968304E1,7.62628E0,1.0920552E1,5.7855415E0,8.087613E0],"tree_param":{"num_deleted":"0","num_feature":"9","num_nodes":"15","size_leaf_vector":"1"}},{"base_weights":[2.3501795E-2,6.2176216E-1,-2.1874383E-1,1.2150128E-1,7.649283E-1,-6.4509255E-1,6.245531E-1,-1.7013624E-2,2.7952287E-2,1.4005333E-2,4.2498797E-2,-8.040668E-4,-3.477223E-2,3.6526456E-2,7.873108E-3],"categories":[],"categories_nodes":[],"categories_segments":[],"categories_sizes":[],"default_left":[0,0,0,0,0,0,0,0,0,0,0,0,0,0,0],"id":32,"left_children":[1,3,5,7,9,11,13,-1,-1,-1,-1,-1,-1,-1,-1],"loss_changes":[2.4461458E1,3.3904076E0,4.362345E1,2.6169426E0,1.3133278E0,2.5332184E0,1.9083118E0,0E0,0E0,0E0,0E0,0E0,0E0,0E0,0E0],"parents":[2147483647,0,0,1,1,2,2,3,3,4,4,5,5,6,6],"right_children":[2,4,6,8,10,12,14,-1,-1,-1,-1,-1,-1,-1,-1],"split_conditions":[-1.0805284E0,-1.0902508E0,1.330072E-1,-2.5980785E-1,-1.1052728E0,9.1446586E-2,7.862635E-1,-1.7013624E-2,2.7952287E-2,1.4005333E-2,4.2498797E-2,-8.040668E-4,-3.477223E-2,3.6526456E-2,7.873108E-3],"split_indices":[6,3,6,8,6,6,1,0,0,0,0,0,0,0,0],"split_type":[0,0,0,0,0,0,0,0,0,0,0,0,0,0,0],"sum_hessian":[1.6684744E2,4.7636242E1,1.192112E2,1.1010672E1,3.6625572E1,7.933603E1,3.9875175E1,5.4651737E0,5.5454984E0,6.106792E0,3.051878E1,5.9778852E0,7.335814E1,3.2041443E1,7.8337297E0],"tree_param":{"num_deleted":"0","num_feature":"9","num_nodes":"15","size_leaf_vector":"1"}},{"base_weights":[8.9585455E-3,5.637614E-1,-2.3794031E-1,4.244056E-2,4.090706E-1,-6.7217904E-1,5.918726E-1,4.0247004E-2,1.0471818E-2,-1.5023343E-2,-3.6235455E-2,3.459173E-2,7.7844025E-3],"categories":[],"categories_nodes":[],"categories_segments":[],"categories_sizes":[],"default_left":[0,0,0,0,0,0,0,0,0,0,0,0,0],"id":33,"left_children":[1,3,5,-1,7,9,11,-1,-1,-1,-1,-1,-1],"loss_changes":[2.2972885E1,1.9300175E0,4.222785E1,0E0,2.6296291E0,1.2794113E0,1.6542692E0,0E0,0E0,0E0,0E0,0E0,0E0],"parents":[2147483647,0,0,1,1,2,2,4,4,5,5,6,6],"right_children":[2,4,6,-1,8,10,12,-1,-1,-1,-1,-1,-1],"split_conditions":[-1.0653044E0,-3.899348E-1,1.3116075E-1,4.244056E-2,-5.2037495E-1,-1.0921061E0,7.862635E-1,4.0247004E-2,1.0471818E-2,-1.5023343E-2,-3.6235455E-2,3.459173E-2,7.7844025E-3],"split_indices":[6,2,6,0,1,3,1,0,0,0,0,0,0],"split_type":[0,0,0,0,0,0,0,0,0,0,0,0,0],"sum_hessian":[1.6573029E2,5.0644466E1,1.15085815E2,1.6237099E1,3.4407368E1,7.567517E1,3.941064E1,1.05181265E1,2.3889238E1,1.0202229E1,6.5472946E1,3.1585884E1,7.8247595E0],"tree_param":{"num_deleted":"0","num_feature":"9","num_nodes":"13","size_leaf_vector":"1"}},{"base_weights":[2.5763392E-2,2.8234315E-1,-1.6462486E-2,3.2738443E-2,-3.575772E-2,5.1795777E-2,-2.987085E-1,-1.6221955E-2,1.5550578E-2,9.992547E-3,-2.7249993E-3,-3.3141475E-2,-4.083276E-5],"categories":[],"categories_nodes":[],"categories_segments":[],"categories_sizes":[],"default_left":[0,0,0,0,0,0,0,0,0,0,0,0,0],"id":34,"left_children":[1,3,5,-1,7,9,11,-1,-1,-1,-1,-1,-1],"loss_changes":[1.7598461E0,2.742126E0,2.713719E0,0E0,1.434844E0,1.7991987E0,2.973942E0,0E0,0E0,0E0,0E0,0E0,0E0],"parents":[2147483647,0,0,1,1,2,2,4,4,5,5,6,6],"right_children":[2,4,6,-1,8,10,12,-1,-1,-1,-1,-1,-1],"split_conditions":[-1.1043388E0,-1.8036722E-1,7.862635E-1,3.2738443E-2,4.516423E-1,-2.6022688E-1,7.953725E-1,-1.6221955E-2,1.5550578E-2,9.992547E-3,-2.7249993E-3,-3.3141475E-2,-4.083276E-5],"split_indices":[5,2,1,0,2,8,1,0,0,0,0,0,0],"split_type":[0,0,0,0,0,0,0,0,0,0,0,0,0],"sum_hessian":[1.6100374E2,2.194874E1,1.39055E2,9.623446E0,1.2325294E1,1.12632484E2,2.642251E1,6.761128E0,5.5641656E0,4.6702408E1,6.593008E1,1.1338318E1,1.5084192E1],"tree_param":{"num_deleted":"0","num_feature":"9","num_nodes":"13","size_leaf_vector":"1"}},{"base_weights":[9.9800415E-3,-2.0386013E-1,7.134638E-1,5.219063E-1,-6.9174886E-1,8.772399E-1,4.1986825E-3,6.9357264E-3,3.2171704E-2,-3.3213187E-3,-3.99563E-2,4.884788E-2,1.8223627E-2],"categories":[],"categories_nodes":[],"categories_segments":[],"categories_sizes":[],"default_left":[0,0,0,0,0,0,0,0,0,0,0,0,0],"id":35,"left_children":[1,3,5,7,9,11,-1,-1,-1,-1,-1,-1,-1],"loss_changes":[2.507515E1,4.5637497E1,3.9319668E0,2.3310013E0,5.1099854E0,1.2150135E0,0E0,0E0,0E0,0E0,0E0,0E0,0E0],"parents":[2147483647,0,0,1,1,2,2,3,3,4,4,5,5],"right_children":[2,4,6,8,10,12,-1,-1,-1,-1,-1,-1,-1],"split_conditions":[1.330072E-1,-1.0653044E0,7.862635E-1,-1.0902508E0,-1.1043388E0,4.7007307E-1,4.1986825E-3,6.9357264E-3,3.2171704E-2,-3.3213187E-3,-3.99563E-2,4.884788E-2,1.8223627E-2],"split_indices":[6,6,1,3,5,0,0,0,0,0,0,0,0],"split_type":[0,0,0,0,0,0,0,0,0,0,0,0,0],"sum_hessian":[1.6471954E2,1.2686592E2,3.7853622E1,5.0972E1,7.589392E1,2.9726126E1,8.127498E0,1.2788793E1,3.818321E1,1.135947E1,6.4534454E1,2.4128584E1,5.597542E0],"tree_param":{"num_deleted":"0","num_feature":"9","num_nodes":"13","size_leaf_vector":"1"}},{"base_weights":[-3.96454E-3,-1.9326052E-1,6.322033E-1,4.9166805E-1,-6.597284E-1,1.1478501E-3,7.371015E-1,1.8579897E-2,4.6732586E-2,6.2292367E-3,-3.872099E-2,5.357001E-2,2.3289502E-2],"categories":[],"categories_nodes":[],"categories_segments":[],"categories_sizes":[],"default_left":[0,0,0,0,0,0,0,0,0,0,0,0,0],"id":36,"left_children":[1,3,5,7,9,-1,11,-1,-1,-1,-1,-1,-1],"loss_changes":[1.9272339E1,3.9725212E1,2.328619E0,2.3405685E0,6.7339096E0,0E0,2.337862E0,0E0,0E0,0E0,0E0,0E0,0E0],"parents":[2147483647,0,0,1,1,2,2,3,3,4,4,6,6],"right_children":[2,4,6,8,10,-1,12,-1,-1,-1,-1,-1,-1],"split_conditions":[1.2889677E0,-1.0653044E0,-5.2593106E-1,-2.4736017E-1,-1.5080692E0,1.1478501E-3,-5.1170236E-1,1.8579897E-2,4.6732586E-2,6.2292367E-3,-3.872099E-2,5.357001E-2,2.3289502E-2],"split_indices":[6,6,1,8,5,0,1,0,0,0,0,0,0],"split_type":[0,0,0,0,0,0,0,0,0,0,0,0,0],"sum_hessian":[1.5802275E2,1.2232141E2,3.5701344E1,4.9534466E1,7.278694E1,5.4230804E0,3.0278263E1,4.0418056E1,9.116408E0,9.274863E0,6.351208E1,1.2243439E1,1.8034824E1],"tree_param":{"num_deleted":"0","num_feature":"9","num_nodes":"13","size_leaf_vector":"1"}},{"base_weights":[2.920721E-4,6.096305E-1,-2.7145532E-1,8.132878E-3,6.921584E-1,-6.82513E-1,5.487737E-1,3.827123E-2,7.129315E-3,-5.716571E-3,-3.8484782E-2,3.4596086E-2,1.0919555E-4],"categories":[],"categories_nodes":[],"categories_segments":[],"categories_sizes":[],"default_left":[0,0,0,0,0,0,0,0,0,0,0,0,0],"id":37,"left_children":[1,3,5,-1,7,9,11,-1,-1,-1,-1,-1,-1],"loss_changes":[2.6032417E1,1.6760349E0,3.703279E1,0E0,1.5265732E0,3.5218697E0,2.8818989E0,0E0,0E0,0E0,0E0,0E0,0E0],"parents":[2147483647,0,0,1,1,2,2,4,4,5,5,6,6],"right_children":[2,4,6,-1,8,10,12,-1,-1,-1,-1,-1,-1],"split_conditions":[-1.0748348E0,-1.4218724E0,1.2889677E0,8.132878E-3,1.5086061E0,-1.1043388E0,7.862635E-1,3.827123E-2,7.129315E-3,-5.716571E-3,-3.8484782E-2,3.4596086E-2,1.0919555E-4],"split_indices":[6,7,6,0,5,5,1,0,0,0,0,0,0],"split_type":[0,0,0,0,0,0,0,0,0,0,0,0,0],"sum_hessian":[1.5521432E2,4.7488228E1,1.07726105E2,7.8645525E0,3.9623676E1,7.187424E1,3.5851864E1,3.461607E1,5.007607E0,9.868869E0,6.2005367E1,2.820047E1,7.6513925E0],"tree_param":{"num_deleted":"0","num_feature":"9","num_nodes":"13","size_leaf_vector":"1"}},{"base_weights":[1.6314358E-2,6.2200016E-1,-1.9498256E-1,6.4234673E-3,7.226894E-1,-5.4992604E-1,5.7340753E-1,2.706398E-2,5.286575E-2,3.0803354E-3,-3.270975E-2,1.9043718E-2,4.997081E-2],"categories":[],"categories_nodes":[],"categories_segments":[],"categories_sizes":[],"default_left":[0,0,0,0,0,0,0,0,0,0,0,0,0],"id":38,"left_children":[1,3,5,-1,7,9,11,-1,-1,-1,-1,-1,-1],"loss_changes":[1.963998E1,1.8791618E0,3.1360947E1,0E0,1.4153423E0,5.037716E0,2.609583E0,0E0,0E0,0E0,0E0,0E0,0E0],"parents":[2147483647,0,0,1,1,2,2,4,4,5,5,6,6],"right_children":[2,4,6,-1,8,10,12,-1,-1,-1,-1,-1,-1],"split_conditions":[-1.0847476E0,-2.7045628E-1,1.330072E-1,6.4234673E-3,-1.0935994E0,9.1446586E-2,-2.5288743E-1,2.706398E-2,5.286575E-2,3.0803354E-3,-3.270975E-2,1.9043718E-2,4.997081E-2],"split_indices":[6,8,6,0,6,6,8,0,0,0,0,0,0],"split_type":[0,0,0,0,0,0,0,0,0,0,0,0,0],"sum_hessian":[1.5151422E2,3.868354E1,1.1283067E2,6.9404826E0,3.1743057E1,7.737367E1,3.545701E1,2.2281313E1,9.461745E0,1.1330422E1,6.604324E1,2.5724813E1,9.732193E0],"tree_param":{"num_deleted":"0","num_feature":"9","num_nodes":"13","size_leaf_vector":"1"}},{"base_weights":[-1.3457116E-2,4.7990048E-1,-2.356001E-1,8.325356E-1,2.4828039E-1,-6.031561E-1,5.285618E-1,4.873191E-2,2.0028722E-2,-1.7533747E-2,1.9376995E-2,-3.2307945E-2,-7.1578794E-3,1.4833805E-2,3.7260637E-2],"categories":[],"categories_nodes":[],"categories_segments":[],"categories_sizes":[],"default_left":[0,0,0,0,0,0,0,0,0,0,0,0,0,0,0],"id":39,"left_children":[1,3,5,7,9,11,13,-1,-1,-1,-1,-1,-1,-1,-1],"loss_changes":[1.6268658E1,3.5583086E0,2.9056076E1,7.0522213E-1,2.5753913E0,1.2833195E0,1.4750729E0,0E0,0E0,0E0,0E0,0E0,0E0,0E0,0E0],"parents":[2147483647,0,0,1,1,2,2,3,3,4,4,5,5,6,6],"right_children":[2,4,6,8,10,12,14,-1,-1,-1,-1,-1,-1,-1,-1],"split_conditions":[-1.0653044E0,-1.9176622E-1,1.2889677E0,1.568652E-1,-1.4218724E0,1.3851049E0,-2.5920787E-1,4.873191E-2,2.0028722E-2,-1.7533747E-2,1.9376995E-2,-3.2307945E-2,-7.1578794E-3,1.4833805E-2,3.7260637E-2],"split_indices":[6,2,6,0,7,7,8,0,0,0,0,0,0,0,0],"split_type":[0,0,0,0,0,0,0,0,0,0,0,0,0,0,0],"sum_hessian":[1.4641052E2,4.5096138E1,1.01314384E2,1.684924E1,2.82469E1,6.855206E1,3.2762318E1,1.17330885E1,5.1161504E0,5.042209E0,2.320469E1,6.232129E1,6.2307777E0,1.6969217E1,1.5793102E1],"tree_param":{"num_deleted":"0","num_feature":"9","num_nodes":"15","size_leaf_vector":"1"}},{"base_weights":[-3.5705958E-2,4.4565502E-1,-2.592371E-1,3.0716118E-1,4.917955E-2,-6.5785336E-1,5.1401436E-1,4.021154E-2,6.76244E-3,4.0623816E-4,-3.8766276E-2,-4.2198347E-3,3.0910054E-2],"categories":[],"categories_nodes":[],"categories_segments":[],"categories_sizes":[],"default_left":[0,0,0,0,0,0,0,0,0,0,0,0,0],"id":40,"left_children":[1,3,5,7,-1,9,11,-1,-1,-1,-1,-1,-1],"loss_changes":[1.5947262E1,3.2014074E0,3.1503178E1,3.2112634E0,0E0,5.2601147E0,2.2314453E0,0E0,0E0,0E0,0E0,0E0,0E0],"parents":[2147483647,0,0,1,1,2,2,3,3,5,5,6,6],"right_children":[2,4,6,8,-1,10,12,-1,-1,-1,-1,-1,-1],"split_conditions":[-1.0653044E0,-2.4736017E-1,1.330072E-1,-5.9790623E-1,4.917955E-2,-1.1043388E0,-2.7315408E-1,4.021154E-2,6.76244E-3,4.0623816E-4,-3.8766276E-2,-4.2198347E-3,3.0910054E-2],"split_indices":[6,8,6,2,0,5,8,0,0,0,0,0,0],"split_type":[0,0,0,0,0,0,0,0,0,0,0,0,0],"sum_hessian":[1.4613617E2,4.6026707E1,1.0010947E2,3.785244E1,8.174268E0,6.615524E1,3.3954224E1,8.781978E0,2.9070461E1,1.0059029E1,5.6096214E1,5.063165E0,2.889106E1],"tree_param":{"num_deleted":"0","num_feature":"9","num_nodes":"13","size_leaf_vector":"1"}},{"base_weights":[-2.9981032E-2,4.799133E-1,-2.2024721E-1,6.7719895E-1,1.4325003E-1,-5.2668226E-1,4.4467756E-1,2.2293454E-2,5.4341316E-2,1.9716663E-2,-1.5231721E-2,4.2540403E-3,-3.0565692E-2,1.2998054E-2,4.5910556E-2],"categories":[],"categories_nodes":[],"categories_segments":[],"categories_sizes":[],"default_left":[0,0,0,0,0,0,0,0,0,0,0,0,0,0,0],"id":41,"left_children":[1,3,5,7,9,11,13,-1,-1,-1,-1,-1,-1,-1,-1],"loss_changes":[1.4190367E1,2.544238E0,2.1916477E1,1.8659315E0,1.9150859E0,3.847105E0,2.7450829E0,0E0,0E0,0E0,0E0,0E0,0E0,0E0,0E0],"parents":[2147483647,0,0,1,1,2,2,3,3,4,4,5,5,6,6],"right_children":[2,4,6,8,10,12,14,-1,-1,-1,-1,-1,-1,-1,-1],"split_conditions":[-1.0847476E0,-1.1517951E-1,1.330072E-1,-1.0940362E0,6.6062546E-1,8.5928604E-2,-2.4986988E-1,2.2293454E-2,5.4341316E-2,1.9716663E-2,-1.5231721E-2,4.2540403E-3,-3.0565692E-2,1.2998054E-2,4.5910556E-2],"split_indices":[6,0,6,6,5,6,8,0,0,0,0,0,0,0,0],"split_type":[0,0,0,0,0,0,0,0,0,0,0,0,0,0,0],"sum_hessian":[1.4417934E2,3.876655E1,1.05412796E2,2.3805155E1,1.4961392E1,7.230052E1,3.3112274E1,1.6548279E1,7.256875E0,9.663575E0,5.2978177E0,8.785904E0,6.3514614E1,2.49347E1,8.177575E0],"tree_param":{"num_deleted":"0","num_feature":"9","num_nodes":"15","size_leaf_vector":"1"}},{"base_weights":[-1.3279562E-2,5.708382E-1,-2.1923234E-1,7.3870486E-1,1.8126266E-1,-4.9749404E-1,4.1487145E-1,2.2035146E-2,4.389197E-2,3.703463E-2,-1.6725654E-2,1.054105E-2,-3.1213222E-2,-8.755575E-3,2.768532E-2],"categories":[],"categories_nodes":[],"categories_segments":[],"categories_sizes":[],"default_left":[0,0,0,0,0,0,0,0,0,0,0,0,0,0,0],"id":42,"left_children":[1,3,5,7,9,11,13,-1,-1,-1,-1,-1,-1,-1,-1],"loss_changes":[1.750199E1,2.3466597E0,1.917693E1,6.9875526E-1,3.9259644E0,6.8821144E0,2.8275166E0,0E0,0E0,0E0,0E0,0E0,0E0,0E0,0E0],"parents":[2147483647,0,0,1,1,2,2,3,3,4,4,5,5,6,6],"right_children":[2,4,6,8,10,12,14,-1,-1,-1,-1,-1,-1,-1,-1],"split_conditions":[-1.0847476E0,6.598684E-1,1.2889677E0,-6.596563E-1,1.3716732E-1,-1.1043388E0,-2.708849E-1,2.2035146E-2,4.389197E-2,3.703463E-2,-1.6725654E-2,1.054105E-2,-3.1213222E-2,-8.755575E-3,2.768532E-2],"split_indices":[6,5,6,5,2,5,8,0,0,0,0,0,0,0,0],"split_type":[0,0,0,0,0,0,0,0,0,0,0,0,0,0,0],"sum_hessian":[1.4344511E2,3.693092E1,1.0651419E2,2.5183336E1,1.1747584E1,7.417824E1,3.2335953E1,9.341954E0,1.5841382E1,5.4261265E0,6.3214583E0,1.1159999E1,6.3018234E1,6.1100082E0,2.6225945E1],"tree_param":{"num_deleted":"0","num_feature":"9","num_nodes":"15","size_leaf_vector":"1"}},{"base_weights":[-9.290607E-4,4.7253183E-1,-2.3041287E-1,4.321373E-2,2.7733988E-1,-5.709443E-1,3.322661E-1,2.0769835E-2,-1.9986492E-2,-3.1584702E-2,-4.9303123E-3,2.8661743E-2,7.0278195E-4],"categories":[],"categories_nodes":[],"categories_segments":[],"categories_sizes":[],"default_left":[0,0,0,0,0,0,0,0,0,0,0,0,0],"id":43,"left_children":[1,3,5,-1,7,9,11,-1,-1,-1,-1,-1,-1],"loss_changes":[1.5583568E1,3.3406925E0,1.8699404E1,0E0,3.2249482E0,1.6751003E0,2.833118E0,0E0,0E0,0E0,0E0,0E0,0E0],"parents":[2147483647,0,0,1,1,2,2,4,4,5,5,6,6],"right_children":[2,4,6,-1,8,10,12,-1,-1,-1,-1,-1,-1],"split_conditions":[-1.0653044E0,-2.0358194E-1,1.2768807E-1,4.321373E-2,1.3769943E0,1.3824028E0,-1.297017E-1,2.0769835E-2,-1.9986492E-2,-3.1584702E-2,-4.9303123E-3,2.8661743E-2,7.0278195E-4],"split_indices":[6,2,6,0,7,7,0,0,0,0,0,0,0],"split_type":[0,0,0,0,0,0,0,0,0,0,0,0,0],"sum_hessian":[1.4142485E2,4.58239E1,9.560096E1,1.4099309E1,3.172459E1,5.9548008E1,3.6052948E1,2.6672462E1,5.0521274E0,5.2463097E1,7.084911E0,2.0060474E1,1.5992475E1],"tree_param":{"num_deleted":"0","num_feature":"9","num_nodes":"13","size_leaf_vector":"1"}},{"base_weights":[5.0878897E-2,5.474299E-1,-9.826404E-2,8.740699E-3,6.767548E-1,-3.3565062E-1,4.8024336E-1,1.9118866E-2,4.2307947E-2,2.7127601E-3,-2.5897954E-2,3.1952854E-2,-6.170475E-3],"categories":[],"categories_nodes":[],"categories_segments":[],"categories_sizes":[],"default_left":[0,0,0,0,0,0,0,0,0,0,0,0,0],"id":44,"left_children":[1,3,5,-1,7,9,11,-1,-1,-1,-1,-1,-1],"loss_changes":[1.0170483E1,1.409543E0,1.4704559E1,0E0,8.328285E-1,5.407486E0,3.0722165E0,0E0,0E0,0E0,0E0,0E0,0E0],"parents":[2147483647,0,0,1,1,2,2,4,4,5,5,6,6],"right_children":[2,4,6,-1,8,10,12,-1,-1,-1,-1,-1,-1],"split_conditions":[-1.0887072E0,-1.1033391E0,1.2889677E0,8.740699E-3,-1.0824513E0,1.0078407E-1,7.888165E-1,1.9118866E-2,4.2307947E-2,2.7127601E-3,-2.5897954E-2,3.1952854E-2,-6.170475E-3],"split_indices":[6,6,6,0,3,6,1,0,0,0,0,0,0],"split_type":[0,0,0,0,0,0,0,0,0,0,0,0,0],"sum_hessian":[1.3560664E2,3.0705702E1,1.0490094E2,8.517237E0,2.2188465E1,7.467738E1,3.0223558E1,9.294459E0,1.2894005E1,2.4016127E1,5.066126E1,2.3881878E1,6.3416796E0],"tree_param":{"num_deleted":"0","num_feature":"9","num_nodes":"13","size_leaf_vector":"1"}},{"base_weights":[1.5191295E-2,-1.5033428E-1,5.5944175E-1,3.437651E-1,-5.283184E-1,8.238267E-1,2.7888358E-1,2.807804E-2,5.6820274E-3,7.0984885E-3,-3.3120748E-2,1.1405187E-2,5.3963013E-2,-1.0824072E-2,3.13843E-2],"categories":[],"categories_nodes":[],"categories_segments":[],"categories_sizes":[],"default_left":[0,0,0,0,0,0,0,0,0,0,0,0,0,0,0],"id":45,"left_children":[1,3,5,7,9,11,13,-1,-1,-1,-1,-1,-1,-1,-1],"loss_changes":[1.2403516E1,1.991237E1,2.151495E0,2.2615514E0,5.5095844E0,2.1909485E0,3.0882244E0,0E0,0E0,0E0,0E0,0E0,0E0,0E0,0E0],"parents":[2147483647,0,0,1,1,2,2,3,3,4,4,5,5,6,6],"right_children":[2,4,6,8,10,12,14,-1,-1,-1,-1,-1,-1,-1,-1],"split_conditions":[1.2889677E0,9.1446586E-2,-5.115014E-1,-1.0669887E0,-1.1043388E0,-5.2508605E-1,9.083949E-1,2.807804E-2,5.6820274E-3,7.0984885E-3,-3.3120748E-2,1.1405187E-2,5.3963013E-2,-1.0824072E-2,3.13843E-2],"split_indices":[6,6,1,3,5,1,3,0,0,0,0,0,0,0,0],"split_type":[0,0,0,0,0,0,0,0,0,0,0,0,0,0,0],"sum_hessian":[1.357496E2,1.0464667E2,3.110293E1,4.5395878E1,5.925079E1,1.50160885E1,1.6086842E1,2.258275E1,2.2813128E1,9.867732E0,4.9383057E1,5.0744495E0,9.941639E0,6.8036866E0,9.283155E0],"tree_param":{"num_deleted":"0","num_feature":"9","num_nodes":"15","size_leaf_vector":"1"}},{"base_weights":[1.792616E-2,-1.3840169E-1,5.068448E-1,2.6689112E-1,-4.3075573E-1,6.546451E-1,-2.943107E-3,3.0418962E-2,5.136159E-3,1.6047027E-2,-2.934407E-2,2.3012044E-2,4.565961E-2],"categories":[],"categories_nodes":[],"categories_segments":[],"categories_sizes":[],"default_left":[0,0,0,0,0,0,0,0,0,0,0,0,0],"id":46,"left_children":[1,3,5,7,9,11,-1,-1,-1,-1,-1,-1,-1],"loss_changes":[1.0345417E1,1.2278092E1,2.7797813E0,2.3837166E0,7.23195E0,8.9038944E-1,0E0,0E0,0E0,0E0,0E0,0E0,0E0],"parents":[2147483647,0,0,1,1,2,2,3,3,4,4,5,5],"right_children":[2,4,6,8,10,12,-1,-1,-1,-1,-1,-1,-1],"split_conditions":[1.2889677E0,-1.0653044E0,7.862635E-1,-3.899348E-1,-1.1043388E0,-1.2102945E-1,-2.943107E-3,3.0418962E-2,5.136159E-3,1.6047027E-2,-2.934407E-2,2.3012044E-2,4.565961E-2],"split_indices":[6,6,1,2,5,0,0,0,0,0,0,0,0],"split_type":[0,0,0,0,0,0,0,0,0,0,0,0,0],"sum_hessian":[1.3343744E2,1.0165196E2,3.1785482E1,4.2634502E1,5.9017464E1,2.5076593E1,6.708888E0,1.2963372E1,2.967113E1,9.968175E0,4.904929E1,1.5900757E1,9.175837E0],"tree_param":{"num_deleted":"0","num_feature":"9","num_nodes":"13","size_leaf_vector":"1"}},{"base_weights":[1.5414637E-2,8.6438626E-2,-2.570602E-1,-1.0170812E-2,4.5855212E-1,6.360252E-3,-5.31136E-1,1.30608305E-2,-7.121435E-3,5.1274765E-2,4.376096E-3,-2.216035E-2,2.1226157E-2,-4.596987E-2,-7.1527953E-3],"categories":[],"categories_nodes":[],"categories_segments":[],"categories_sizes":[],"default_left":[0,0,0,0,0,0,0,0,0,0,0,0,0,0,0],"id":47,"left_children":[1,3,5,7,9,11,13,-1,-1,-1,-1,-1,-1,-1,-1],"loss_changes":[2.5951736E0,3.8229413E0,2.0062714E0,3.0988352E0,4.519759E0,3.0332541E0,1.9188585E0,0E0,0E0,0E0,0E0,0E0,0E0,0E0,0E0],"parents":[2147483647,0,0,1,1,2,2,3,3,4,4,5,5,6,6],"right_children":[2,4,6,8,10,12,14,-1,-1,-1,-1,-1,-1,-1,-1],"split_conditions":[1.0880915E0,6.346478E-1,9.0477735E-1,-1.080876E0,6.598684E-1,-1.0899117E0,9.17443E-1,1.30608305E-2,-7.121435E-3,5.1274765E-2,4.376096E-3,-2.216035E-2,2.1226157E-2,-4.596987E-2,-7.1527953E-3],"split_indices":[5,5,3,5,5,3,3,0,0,0,0,0,0,0,0],"split_type":[0,0,0,0,0,0,0,0,0,0,0,0,0,0,0],"sum_hessian":[1.3195374E2,1.0521174E2,2.6741995E1,8.429852E1,2.0913216E1,1.4134142E1,1.2607853E1,2.7301657E1,5.699687E1,7.5748096E0,1.3338407E1,6.782442E0,7.3517E0,5.6180677E0,6.9897847E0],"tree_param":{"num_deleted":"0","num_feature":"9","num_nodes":"15","size_leaf_vector":"1"}},{"base_weights":[1.4351588E-2,4.1502133E-1,-1.8116044E-1,5.258971E-1,-1.169046E-2,-5.0078475E-1,4.3940622E-1,5.386816E-3,3.095516E-2,5.9733107E-3,-3.1254325E-2,3.0559001E-2,-7.30811E-3],"categories":[],"categories_nodes":[],"categories_segments":[],"categories_sizes":[],"default_left":[0,0,0,0,0,0,0,0,0,0,0,0,0],"id":48,"left_children":[1,3,5,7,-1,9,11,-1,-1,-1,-1,-1,-1],"loss_changes":[1.0581397E1,3.3089094E0,1.823626E1,1.4194536E0,0E0,4.7329473E0,3.2488503E0,0E0,0E0,0E0,0E0,0E0,0E0],"parents":[2147483647,0,0,1,1,2,2,3,3,5,5,6,6],"right_children":[2,4,6,8,-1,10,12,-1,-1,-1,-1,-1,-1],"split_conditions":[-1.0653044E0,1.5086061E0,1.2889677E0,-1.1033391E0,-1.169046E-2,-1.1043388E0,7.862635E-1,5.386816E-3,3.095516E-2,5.9733107E-3,-3.1254325E-2,3.0559001E-2,-7.30811E-3],"split_indices":[6,5,6,6,0,5,1,0,0,0,0,0,0],"split_type":[0,0,0,0,0,0,0,0,0,0,0,0,0],"sum_hessian":[1.331177E2,4.328647E1,8.983124E1,3.7130817E1,6.1556487E0,5.94199E1,3.0411337E1,7.160735E0,2.9970085E1,9.926542E0,4.949336E1,2.3479885E1,6.931453E0],"tree_param":{"num_deleted":"0","num_feature":"9","num_nodes":"13","size_leaf_vector":"1"}},{"base_weights":[-1.1188064E-2,3.5783818E-1,-8.1774056E-2,2.1481905E-2,4.5239124E-2,-2.9027311E-2,-4.164197E-2,1.7256765E-2,-1.4773457E-2,5.4609193E-3,-7.66622E-3],"categories":[],"categories_nodes":[],"categories_segments":[],"categories_sizes":[],"default_left":[0,0,0,0,0,0,0,0,0,0,0],"id":49,"left_children":[1,3,5,7,-1,-1,9,-1,-1,-1,-1],"loss_changes":[3.484179E0,3.9326828E0,2.2207751E0,1.5716192E0,0E0,0E0,1.7837898E0,0E0,0E0,0E0,0E0],"parents":[2147483647,0,0,1,1,2,2,3,3,6,6],"right_children":[2,4,6,8,-1,-1,10,-1,-1,-1,-1],"split_conditions":[-1.0926784E0,-5.1235956E-1,-1.0902508E0,6.7294663E-1,4.5239124E-2,-2.9027311E-2,-2.6117283E-1,1.7256765E-2,-1.4773457E-2,5.4609193E-3,-7.66622E-3],"split_indices":[3,1,3,7,0,0,8,0,0,0,0],"split_type":[0,0,0,0,0,0,0,0,0,0,0],"sum_hessian":[1.3163612E2,2.0482628E1,1.11153496E2,1.3326475E1,7.1561537E0,7.274777E0,1.03878716E2,6.549527E0,6.776948E0,4.4198097E1,5.968062E1],"tree_param":{"num_deleted":"0","num_feature":"9","num_nodes":"11","size_leaf_vector":"1"}},{"base_weights":[2.6772188E-2,-9.130861E-2,4.0926936E-1,2.420573E-1,-4.8519415E-1,8.0844246E-2,7.651195E-1,3.1597055E-2,4.676522E-3,-9.137452E-5,-3.0392084E-2,-6.7736E-3,2.236528E-2,1.2546162E-2,5.027858E-2],"categories":[],"categories_nodes":[],"categories_segments":[],"categories_sizes":[],"default_left":[0,0,0,0,0,0,0,0,0,0,0,0,0,0,0],"id":50,"left_children":[1,3,5,7,9,11,13,-1,-1,-1,-1,-1,-1,-1,-1],"loss_changes":[5.9228296E0,1.3299166E1,3.551856E0,3.1280484E0,2.7466755E0,1.4239216E0,1.5679741E0,0E0,0E0,0E0,0E0,0E0,0E0,0E0,0E0],"parents":[2147483647,0,0,1,1,2,2,3,3,4,4,5,5,6,6],"right_children":[2,4,6,8,10,12,14,-1,-1,-1,-1,-1,-1,-1,-1],"split_conditions":[1.330072E-1,1.0078407E-1,-2.5920787E-1,-6.523805E-1,-1.4963483E0,9.150172E-1,-6.381576E-1,3.1597055E-2,4.676522E-3,-9.137452E-5,-3.0392084E-2,-6.7736E-3,2.236528E-2,1.2546162E-2,5.027858E-2],"split_indices":[6,6,8,5,5,3,5,0,0,0,0,0,0,0,0],"split_type":[0,0,0,0,0,0,0,0,0,0,0,0,0,0,0],"sum_hessian":[1.2930853E2,9.938779E1,2.9920746E1,5.4038036E1,4.534975E1,1.6198154E1,1.3722592E1,1.4009169E1,4.002887E1,9.383461E0,3.596629E1,1.0582059E1,5.6160955E0,5.023535E0,8.699058E0],"tree_param":{"num_deleted":"0","num_feature":"9","num_nodes":"15","size_leaf_vector":"1"}},{"base_weights":[-5.362311E-3,3.097469E-1,-6.751833E-2,2.9475588E-2,1.41361235E-2,1.2707864E-1,-1.8997394E-1,-1.6550438E-2,1.6722076E-2,-3.638164E-3,1.6337214E-2,-4.6459035E-4,-2.5506184E-2],"categories":[],"categories_nodes":[],"categories_segments":[],"categories_sizes":[],"default_left":[0,0,0,0,0,0,0,0,0,0,0,0,0],"id":51,"left_children":[1,3,5,-1,7,9,11,-1,-1,-1,-1,-1,-1],"loss_changes":[2.54273E0,1.760829E0,2.6064095E0,0E0,1.3738753E0,1.7177119E0,3.8657768E0,0E0,0E0,0E0,0E0,0E0,0E0],"parents":[2147483647,0,0,1,1,2,2,4,4,5,5,6,6],"right_children":[2,4,6,-1,8,10,12,-1,-1,-1,-1,-1,-1],"split_conditions":[-1.0926784E0,-1.9768752E-2,-3.899348E-1,2.9475588E-2,6.8800944E-1,9.1792244E-1,-5.107039E-1,-1.6550438E-2,1.6722076E-2,-3.638164E-3,1.6337214E-2,-4.6459035E-4,-2.5506184E-2],"split_indices":[3,7,2,0,7,3,1,0,0,0,0,0,0],"split_type":[0,0,0,0,0,0,0,0,0,0,0,0,0],"sum_hessian":[1.2775652E2,2.0392143E1,1.0736438E2,9.966074E0,1.042607E1,4.1452896E1,6.591148E1,5.002362E0,5.4237084E0,2.103495E1,2.0417944E1,4.279078E1,2.3120707E1],"tree_param":{"num_deleted":"0","num_feature":"9","num_nodes":"13","size_leaf_vector":"1"}},{"base_weights":[-2.2762138E-2,3.1652123E-1,-2.044757E-1,7.502948E-1,1.6071618E-1,-4.7669646E-1,2.9097074E-1,1.9664155E-2,4.8156753E-2,-8.659187E-3,2.1027675E-2,1.2573465E-2,-3.0293081E-2,-1.4520134E-2,2.0819185E-2],"categories":[],"categories_nodes":[],"categories_segments":[],"categories_sizes":[],"default_left":[0,0,0,0,0,0,0,0,0,0,0,0,0,0,0],"id":52,"left_children":[1,3,5,7,9,11,13,-1,-1,-1,-1,-1,-1,-1,-1],"loss_changes":[8.093271E0,2.9755564E0,1.1658183E1,5.204258E-1,3.1074977E0,5.372592E0,2.374508E0,0E0,0E0,0E0,0E0,0E0,0E0,0E0,0E0],"parents":[2147483647,0,0,1,1,2,2,3,3,4,4,5,5,6,6],"right_children":[2,4,6,8,10,12,14,-1,-1,-1,-1,-1,-1,-1,-1],"split_conditions":[9.1446586E-2,-5.193281E-1,1.2889677E0,-1.0954971E0,-4.1076198E-1,-1.5080692E0,-5.248459E-1,1.9664155E-2,4.8156753E-2,-8.659187E-3,2.1027675E-2,1.2573465E-2,-3.0293081E-2,-1.4520134E-2,2.0819185E-2],"split_indices":[6,1,6,6,0,5,1,0,0,0,0,0,0,0,0],"split_type":[0,0,0,0,0,0,0,0,0,0,0,0,0,0,0],"sum_hessian":[1.2922287E2,4.4811665E1,8.44112E1,1.0833828E1,3.3977837E1,5.4502754E1,2.9908443E1,5.110096E0,5.723732E0,1.5015672E1,1.8962166E1,8.068708E0,4.6434048E1,5.0735507E0,2.4834894E1],"tree_param":{"num_deleted":"0","num_feature":"9","num_nodes":"15","size_leaf_vector":"1"}},{"base_weights":[2.195588E-2,2.0104612E-1,-7.444275E-2,4.5947783E-2,6.296175E-1,-1.171887E-2,-2.9938847E-2,1.3404438E-2,-1.15723405E-2,1.0576717E-2,4.553124E-2,-9.009483E-3,1.6834114E-2],"categories":[],"categories_nodes":[],"categories_segments":[],"categories_sizes":[],"default_left":[0,0,0,0,0,0,0,0,0,0,0,0,0],"id":53,"left_children":[1,3,5,7,9,11,-1,-1,-1,-1,-1,-1,-1],"loss_changes":[2.215619E0,2.953903E0,2.7423046E0,2.158918E0,1.1990604E0,4.502972E0,0E0,0E0,0E0,0E0,0E0,0E0,0E0],"parents":[2147483647,0,0,1,1,2,2,3,3,4,4,5,5],"right_children":[2,4,6,8,10,12,-1,-1,-1,-1,-1,-1,-1],"split_conditions":[-3.899348E-1,-8.052314E-1,1.5176413E0,-1.0387508E0,-2.3857702E-2,2.2870013E-1,-2.9938847E-2,1.3404438E-2,-1.15723405E-2,1.0576717E-2,4.553124E-2,-9.009483E-3,1.6834114E-2],"split_indices":[2,2,5,2,7,5,0,0,0,0,0,0,0],"split_type":[0,0,0,0,0,0,0,0,0,0,0,0,0],"sum_hessian":[1.2647019E2,4.3874386E1,8.25958E1,3.3028656E1,1.0845733E1,7.468402E1,7.9117837E0,1.8359606E1,1.4669049E1,5.06411E0,5.781623E0,5.0666725E1,2.4017294E1],"tree_param":{"num_deleted":"0","num_feature":"9","num_nodes":"13","size_leaf_vector":"1"}},{"base_weights":[2.1736084E-2,-1.2008233E-1,4.8852912E-1,3.2834187E-1,-3.6782616E-1,6.30429E-1,-3.492886E-3,2.985966E-2,-8.314258E-3,2.0115744E-2,-2.5485272E-2,1.967669E-2,4.127393E-2],"categories":[],"categories_nodes":[],"categories_segments":[],"categories_sizes":[],"default_left":[0,0,0,0,0,0,0,0,0,0,0,0,0],"id":54,"left_children":[1,3,5,7,9,11,-1,-1,-1,-1,-1,-1,-1],"loss_changes":[8.492943E0,1.106588E1,2.4120188E0,4.831937E0,7.190734E0,7.8083897E-1,0E0,0E0,0E0,0E0,0E0,0E0,0E0],"parents":[2147483647,0,0,1,1,2,2,3,3,4,4,5,5],"right_children":[2,4,6,8,10,12,-1,-1,-1,-1,-1,-1,-1],"split_conditions":[1.2889677E0,-1.0847476E0,7.888165E-1,6.598684E-1,-1.1043388E0,-2.5955915E-1,-3.492886E-3,2.985966E-2,-8.314258E-3,2.0115744E-2,-2.5485272E-2,1.967669E-2,4.127393E-2],"split_indices":[6,6,1,5,5,8,0,0,0,0,0,0,0],"split_type":[0,0,0,0,0,0,0,0,0,0,0,0,0],"sum_hessian":[1.2640632E2,9.752084E1,2.8885479E1,3.4588757E1,6.2932083E1,2.2929504E1,5.955974E0,2.227433E1,1.2314427E1,9.50453E0,5.342755E1,1.1716711E1,1.1212793E1],"tree_param":{"num_deleted":"0","num_feature":"9","num_nodes":"13","size_leaf_vector":"1"}},{"base_weights":[-6.9223004E-3,4.40973E-2,-3.5842603E-1,-7.8853846E-2,3.036012E-1,8.717732E-3,-3.138717E-2,2.5938068E-2,-6.4897696E-3,3.7385345E-2,3.3951947E-3],"categories":[],"categories_nodes":[],"categories_segments":[],"categories_sizes":[],"default_left":[0,0,0,0,0,0,0,0,0,0,0],"id":55,"left_children":[1,3,5,7,9,-1,-1,-1,-1,-1,-1],"loss_changes":[2.2178407E0,3.4735048E0,2.3583095E0,2.324789E0,3.608962E0,0E0,0E0,0E0,0E0,0E0,0E0],"parents":[2147483647,0,0,1,1,2,2,3,3,4,4],"right_children":[2,4,6,8,10,-1,-1,-1,-1,-1,-1],"split_conditions":[1.512525E0,2.2870013E-1,-1.9230126E-1,-1.5214894E0,6.598684E-1,8.717732E-3,-3.138717E-2,2.5938068E-2,-6.4897696E-3,3.7385345E-2,3.3951947E-3],"split_indices":[5,5,2,5,5,0,0,0,0,0,0],"split_type":[0,0,0,0,0,0,0,0,0,0,0],"sum_hessian":[1.2178837E2,1.07115456E2,1.4672907E1,7.3152466E1,3.3962994E1,5.0450583E0,9.627849E0,5.0245104E0,6.812795E1,1.1022277E1,2.2940716E1],"tree_param":{"num_deleted":"0","num_feature":"9","num_nodes":"11","size_leaf_vector":"1"}},{"base_weights":[1.8905101E-2,-1.0083514E-1,4.0866423E-1,2.6738283E-1,-4.1468567E-1,4.239913E-2,1.6387396E-1,3.0397935E-2,3.9816545E-3,7.3599378E-3,-2.6833931E-2,2.42443E-2,-1.1565199E-2],"categories":[],"categories_nodes":[],"categories_segments":[],"categories_sizes":[],"default_left":[0,0,0,0,0,0,0,0,0,0,0,0,0],"id":56,"left_children":[1,3,5,7,9,-1,11,-1,-1,-1,-1,-1,-1],"loss_changes":[5.8456635E0,1.1198835E1,3.0256877E0,2.8134687E0,3.656312E0,0E0,2.6666899E0,0E0,0E0,0E0,0E0,0E0,0E0],"parents":[2147483647,0,0,1,1,2,2,3,3,4,4,6,6],"right_children":[2,4,6,8,10,-1,12,-1,-1,-1,-1,-1,-1],"split_conditions":[1.2889677E0,9.1446586E-2,-4.2569867E-1,-1.9230126E-1,-1.4963483E0,4.239913E-2,9.0395945E-1,3.0397935E-2,3.9816545E-3,7.3599378E-3,-2.6833931E-2,2.42443E-2,-1.1565199E-2],"split_indices":[6,6,0,2,5,0,3,0,0,0,0,0,0],"split_type":[0,0,0,0,0,0,0,0,0,0,0,0,0],"sum_hessian":[1.2337271E2,9.494529E1,2.8427422E1,4.3756744E1,5.1188545E1,9.290284E0,1.9137136E1,1.4754365E1,2.9002378E1,9.094374E0,4.209417E1,1.0434196E1,8.702941E0],"tree_param":{"num_deleted":"0","num_feature":"9","num_nodes":"13","size_leaf_vector":"1"}},{"base_weights":[-3.7467375E-2,-1.5114719E-1,3.2489836E-1,2.1228142E-1,-4.5979398E-1,3.633558E-2,5.1767606E-1,3.558217E-3,4.109804E-2,6.0440153E-3,-3.028074E-2,2.2427002E-2,-2.0237157E-2,3.5349872E-2,1.1139738E-2],"categories":[],"categories_nodes":[],"categories_segments":[],"categories_sizes":[],"default_left":[0,0,0,0,0,0,0,0,0,0,0,0,0,0,0],"id":57,"left_children":[1,3,5,7,9,11,13,-1,-1,-1,-1,-1,-1,-1,-1],"loss_changes":[5.186482E0,1.0822706E1,1.6555479E0,3.7782218E0,4.477931E0,2.5687995E0,8.45634E-1,0E0,0E0,0E0,0E0,0E0,0E0,0E0,0E0],"parents":[2147483647,0,0,1,1,2,2,3,3,4,4,5,5,6,6],"right_children":[2,4,6,8,10,12,14,-1,-1,-1,-1,-1,-1,-1,-1],"split_conditions":[1.2889677E0,9.1446586E-2,-2.2667344E-1,-2.4736017E-1,-1.4963483E0,-1.2795007E-1,-1.3764529E-2,3.558217E-3,4.109804E-2,6.0440153E-3,-3.028074E-2,2.2427002E-2,-2.0237157E-2,3.5349872E-2,1.1139738E-2],"split_indices":[6,6,5,8,5,0,7,0,0,0,0,0,0,0,0],"split_type":[0,0,0,0,0,0,0,0,0,0,0,0,0,0,0],"sum_hessian":[1.2371272E2,9.4613785E1,2.909894E1,4.3594227E1,5.1019558E1,1.2130167E1,1.6968773E1,3.6307236E1,7.28699E0,1.0274885E1,4.0744675E1,6.2615757E0,5.8685913E0,9.482924E0,7.4858475E0],"tree_param":{"num_deleted":"0","num_feature":"9","num_nodes":"15","size_leaf_vector":"1"}},{"base_weights":[3.3474013E-2,8.452541E-2,-4.132636E-1,-4.1176964E-2,3.8359746E-1,9.6093296E-5,-3.7828248E-2,-5.1286034E-3,2.6720524E-2,6.270387E-2,5.477536E-3],"categories":[],"categories_nodes":[],"categories_segments":[],"categories_sizes":[],"default_left":[0,0,0,0,0,0,0,0,0,0,0],"id":58,"left_children":[1,3,5,7,9,-1,-1,-1,-1,-1,-1],"loss_changes":[2.8014522E0,4.1396155E0,1.7988405E0,2.8159761E0,7.6294475E0,0E0,0E0,0E0,0E0,0E0,0E0],"parents":[2147483647,0,0,1,1,2,2,3,3,4,4],"right_children":[2,4,6,8,10,-1,-1,-1,-1,-1,-1],"split_conditions":[1.5176413E0,6.346478E-1,1.3893235E-1,8.0025405E-1,6.5900046E-1,9.6093296E-5,-3.7828248E-2,-5.1286034E-3,2.6720524E-2,6.270387E-2,5.477536E-3],"split_indices":[5,5,2,1,5,0,0,0,0,0,0],"split_type":[0,0,0,0,0,0,0,0,0,0,0],"sum_hessian":[1.2030365E2,1.086934E2,1.1610254E1,7.7135185E1,3.1558214E1,5.7050366E0,5.905217E0,7.044315E1,6.6920314E0,6.700059E0,2.4858156E1],"tree_param":{"num_deleted":"0","num_feature":"9","num_nodes":"11","size_leaf_vector":"1"}},{"base_weights":[3.554017E-2,8.314732E-2,-3.1680548E-1,-1.3000551E-2,3.3041254E-1,-3.336222E-2,3.8272443E-5,-3.3354547E-3,2.6836285E-2,5.336198E-2,1.3580023E-3],"categories":[],"categories_nodes":[],"categories_segments":[],"categories_sizes":[],"default_left":[0,0,0,0,0,0,0,0,0,0,0],"id":59,"left_children":[1,3,5,7,9,-1,-1,-1,-1,-1,-1],"loss_changes":[2.065016E0,2.5686073E0,1.6336373E0,2.3572123E0,6.7272525E0,0E0,0E0,0E0,0E0,0E0,0E0],"parents":[2147483647,0,0,1,1,2,2,3,3,4,4],"right_children":[2,4,6,8,10,-1,-1,-1,-1,-1,-1],"split_conditions":[1.512525E0,6.346478E-1,1.5228709E0,8.0025405E-1,6.6181386E-1,-3.336222E-2,3.8272443E-5,-3.3354547E-3,2.6836285E-2,5.336198E-2,1.3580023E-3],"split_indices":[5,5,5,1,5,0,0,0,0,0,0],"split_type":[0,0,0,0,0,0,0,0,0,0,0],"sum_hessian":[1.2053653E2,1.06861916E2,1.3674619E1,7.762517E1,2.9236744E1,5.977439E0,7.69718E0,7.151661E1,6.1085596E0,7.789912E0,2.144683E1],"tree_param":{"num_deleted":"0","num_feature":"9","num_nodes":"11","size_leaf_vector":"1"}},{"base_weights":[2.1219604E-2,-9.842602E-2,3.7189743E-1,2.3873696E-1,-3.947407E-1,-5.0758054E-3,4.887336E-1,3.3761103E-2,5.2164863E-3,1.3205985E-2,-2.726298E-2,-8.6267386E-4,3.0817775E-2],"categories":[],"categories_nodes":[],"categories_segments":[],"categories_sizes":[],"default_left":[0,0,0,0,0,0,0,0,0,0,0,0,0],"id":60,"left_children":[1,3,5,7,9,-1,11,-1,-1,-1,-1,-1,-1],"loss_changes":[5.258979E0,9.445114E0,1.8125725E0,2.5345736E0,5.121676E0,0E0,1.6725364E0,0E0,0E0,0E0,0E0,0E0,0E0],"parents":[2147483647,0,0,1,1,2,2,3,3,4,4,6,6],"right_children":[2,4,6,8,10,-1,12,-1,-1,-1,-1,-1,-1],"split_conditions":[1.2768807E-1,9.1446586E-2,-2.7074566E-1,-5.211128E-1,-1.1043388E0,-5.0758054E-3,-5.2455294E-1,3.3761103E-2,5.2164863E-3,1.3205985E-2,-2.726298E-2,-8.6267386E-4,3.0817775E-2],"split_indices":[6,6,8,1,5,0,1,0,0,0,0,0,0],"split_type":[0,0,0,0,0,0,0,0,0,0,0,0,0],"sum_hessian":[1.2346949E2,9.259641E1,3.087308E1,4.3403667E1,4.9192745E1,6.137085E0,2.4735994E1,9.271367E0,3.41323E1,9.007936E0,4.0184807E1,5.156529E0,1.9579466E1],"tree_param":{"num_deleted":"0","num_feature":"9","num_nodes":"13","size_leaf_vector":"1"}},{"base_weights":[2.9568683E-2,4.5950183E-1,-1.0513041E-1,-3.994435E-3,7.0414114E-1,-2.7398655E-1,2.9348052E-1,4.9882587E-2,1.8566541E-2,-7.975231E-3,-3.5522543E-2,-4.1110306E-3,2.1811888E-2],"categories":[],"categories_nodes":[],"categories_segments":[],"categories_sizes":[],"default_left":[0,0,0,0,0,0,0,0,0,0,0,0,0],"id":61,"left_children":[1,3,5,-1,7,9,11,-1,-1,-1,-1,-1,-1],"loss_changes":[7.057785E0,3.8910284E0,6.338465E0,0E0,1.592494E0,3.1759014E0,1.545614E0,0E0,0E0,0E0,0E0,0E0,0E0],"parents":[2147483647,0,0,1,1,2,2,4,4,5,5,6,6],"right_children":[2,4,6,-1,8,10,12,-1,-1,-1,-1,-1,-1],"split_conditions":[-1.0887072E0,-1.1025691E0,1.2889677E0,-3.994435E-3,-2.60102E-1,1.0870453E0,-2.6814684E-1,4.9882587E-2,1.8566541E-2,-7.975231E-3,-3.5522543E-2,-4.1110306E-3,2.1811888E-2],"split_indices":[6,6,6,0,8,5,8,0,0,0,0,0,0],"split_type":[0,0,0,0,0,0,0,0,0,0,0,0,0],"sum_hessian":[1.2003753E2,2.8060997E1,9.197653E1,8.965952E0,1.9095045E1,6.482751E1,2.7149025E1,9.085097E0,1.0009947E1,5.243862E1,1.23888855E1,7.592232E0,1.9556793E1],"tree_param":{"num_deleted":"0","num_feature":"9","num_nodes":"13","size_leaf_vector":"1"}},{"base_weights":[7.7161014E-2,-2.4681425E-2,3.9905763E-1,2.6947835E-1,-3.738693E-1,5.981672E-1,-1.2199145E-2,3.0782012E-2,4.697977E-3,-2.398385E-2,9.6074175E-3,1.8139308E-2,4.5003615E-2],"categories":[],"categories_nodes":[],"categories_segments":[],"categories_sizes":[],"default_left":[0,0,0,0,0,0,0,0,0,0,0,0,0],"id":62,"left_children":[1,3,5,7,9,11,-1,-1,-1,-1,-1,-1,-1],"loss_changes":[3.9259973E0,9.518735E0,3.8293915E0,3.0011158E0,2.6279855E0,1.2550983E0,0E0,0E0,0E0,0E0,0E0,0E0,0E0],"parents":[2147483647,0,0,1,1,2,2,3,3,4,4,5,5],"right_children":[2,4,6,8,10,12,-1,-1,-1,-1,-1,-1,-1],"split_conditions":[1.330072E-1,1.0078407E-1,7.862635E-1,-6.390643E-1,7.467072E-1,-2.5688776E-1,-1.2199145E-2,3.0782012E-2,4.697977E-3,-2.398385E-2,9.6074175E-3,1.8139308E-2,4.5003615E-2],"split_indices":[6,6,1,5,0,8,0,0,0,0,0,0,0],"split_type":[0,0,0,0,0,0,0,0,0,0,0,0,0],"sum_hessian":[1.1845762E2,9.0688644E1,2.7768969E1,4.9346703E1,4.134194E1,2.1256836E1,6.5121326E0,1.5758975E1,3.3587727E1,3.49594E1,6.382543E0,1.3181504E1,8.075333E0],"tree_param":{"num_deleted":"0","num_feature":"9","num_nodes":"13","size_leaf_vector":"1"}},{"base_weights":[2.1545926E-2,2.9556203E-1,-1.2884772E-1,5.960328E-1,1.5981536E-1,-3.6465767E-1,2.3568141E-1,6.4083547E-3,4.4177383E-2,1.7226225E-2,-2.149265E-2,1.025638E-2,-2.5392566E-2,2.2846472E-2,6.3872436E-4],"categories":[],"categories_nodes":[],"categories_segments":[],"categories_sizes":[],"default_left":[0,0,0,0,0,0,0,0,0,0,0,0,0,0,0],"id":63,"left_children":[1,3,5,7,9,11,13,-1,-1,-1,-1,-1,-1,-1,-1],"loss_changes":[4.887988E0,1.6181233E0,6.677304E0,1.5959239E0,3.4484155E0,3.9350467E0,1.5095391E0,0E0,0E0,0E0,0E0,0E0,0E0,0E0,0E0],"parents":[2147483647,0,0,1,1,2,2,3,3,4,4,5,5,6,6],"right_children":[2,4,6,8,10,12,14,-1,-1,-1,-1,-1,-1,-1,-1],"split_conditions":[9.1446586E-2,-3.899348E-1,1.2768807E-1,9.133505E-1,9.159535E-1,-1.1043388E0,1.313094E0,6.4083547E-3,4.4177383E-2,1.7226225E-2,-2.149265E-2,1.025638E-2,-2.5392566E-2,2.2846472E-2,6.3872436E-4],"split_indices":[6,2,6,3,3,5,6,0,0,0,0,0,0,0,0],"split_type":[0,0,0,0,0,0,0,0,0,0,0,0,0,0,0],"sum_hessian":[1.1668678E2,4.1007027E1,7.5679756E1,1.1705817E1,2.9301208E1,4.595294E1,2.9726816E1,5.0057926E0,6.700024E0,2.262868E1,6.67253E0,9.142253E0,3.6810688E1,1.4392029E1,1.5334787E1],"tree_param":{"num_deleted":"0","num_feature":"9","num_nodes":"15","size_leaf_vector":"1"}},{"base_weights":[-1.2409157E-2,-7.021561E-2,2.9518692E-2,2.2040181E-1,-2.5510484E-1,2.9494176E-3,4.1246522E-2,-2.1515248E-2,4.189758E-3],"categories":[],"categories_nodes":[],"categories_segments":[],"categories_sizes":[],"default_left":[0,0,0,0,0,0,0,0,0],"id":64,"left_children":[1,3,-1,5,7,-1,-1,-1,-1],"loss_changes":[4.157906E0,5.89651E0,0E0,4.1276293E0,4.007896E0,0E0,0E0,0E0,0E0],"parents":[2147483647,0,0,1,1,3,3,4,4],"right_children":[2,4,-1,6,8,-1,-1,-1,-1],"split_conditions":[1.3179083E0,9.227859E-2,2.9518692E-2,-2.4935283E-1,2.2870013E-1,2.9494176E-3,4.1246522E-2,-2.1515248E-2,4.189758E-3],"split_indices":[6,6,0,8,5,0,0,0,0],"split_type":[0,0,0,0,0,0,0,0,0],"sum_hessian":[1.1713695E2,1.076928E2,9.444148E0,4.179905E1,6.589375E1,3.385666E1,7.942392E0,4.326003E1,2.2633722E1],"tree_param":{"num_deleted":"0","num_feature":"9","num_nodes":"9","size_leaf_vector":"1"}},{"base_weights":[-2.1649895E-3,2.615102E-1,-1.4550614E-1,3.375717E-2,1.3919774E-1,-3.8760442E-1,2.4947216E-1,-3.120028E-2,1.575768E-2,-4.199973E-3,-2.4287028E-2,-1.3224731E-2,1.9218793E-2],"categories":[],"categories_nodes":[],"categories_segments":[],"categories_sizes":[],"default_left":[0,0,0,0,0,0,0,0,0,0,0,0,0],"id":65,"left_children":[1,3,5,-1,7,9,11,-1,-1,-1,-1,-1,-1],"loss_changes":[4.449531E0,2.003753E0,7.388604E0,0E0,4.6631937E0,1.3794909E0,2.1531055E0,0E0,0E0,0E0,0E0,0E0,0E0],"parents":[2147483647,0,0,1,1,2,2,4,4,5,5,6,6],"right_children":[2,4,6,-1,8,10,12,-1,-1,-1,-1,-1,-1],"split_conditions":[8.5928604E-2,-5.211128E-1,1.2768807E-1,3.375717E-2,-5.161785E-1,1.0243089E-1,-2.7113008E-1,-3.120028E-2,1.575768E-2,-4.199973E-3,-2.4287028E-2,-1.3224731E-2,1.9218793E-2],"split_indices":[6,1,6,0,1,6,8,0,0,0,0,0,0],"split_type":[0,0,0,0,0,0,0,0,0,0,0,0,0],"sum_hessian":[1.15719696E2,4.0463303E1,7.525639E1,8.20295E0,3.2260353E1,4.6669453E1,2.8586937E1,5.567052E0,2.66933E1,1.18536415E1,3.481581E1,5.743662E0,2.2843277E1],"tree_param":{"num_deleted":"0","num_feature":"9","num_nodes":"13","size_leaf_vector":"1"}},{"base_weights":[5.1107578E-2,-4.5938324E-2,3.7108114E-1,2.5823498E-1,-2.9717696E-1,4.4597935E-2,1.6413054E-1,-1.2164938E-2,2.2465179E-2,1.0006349E-2,-2.1671072E-2,-3.4988993E-3,2.7039561E-2],"categories":[],"categories_nodes":[],"categories_segments":[],"categories_sizes":[],"default_left":[0,0,0,0,0,0,0,0,0,0,0,0,0],"id":66,"left_children":[1,3,5,7,9,-1,11,-1,-1,-1,-1,-1,-1],"loss_changes":[3.659555E0,7.0229387E0,2.808085E0,4.1006255E0,3.4910088E0,0E0,1.8755387E0,0E0,0E0,0E0,0E0,0E0,0E0],"parents":[2147483647,0,0,1,1,2,2,3,3,4,4,6,6],"right_children":[2,4,6,8,10,-1,12,-1,-1,-1,-1,-1,-1],"split_conditions":[1.2889677E0,9.1446586E-2,1.3084162E0,-1.0902508E0,-1.1043388E0,4.4597935E-2,1.3199325E0,-1.2164938E-2,2.2465179E-2,1.0006349E-2,-2.1671072E-2,-3.4988993E-3,2.7039561E-2],"split_indices":[6,6,6,3,5,0,6,0,0,0,0,0,0],"split_type":[0,0,0,0,0,0,0,0,0,0,0,0,0],"sum_hessian":[1.16303024E2,8.989491E1,2.6408113E1,4.065105E1,4.9243862E1,6.567714E0,1.9840399E1,1.1139016E1,2.9512033E1,1.0489052E1,3.875481E1,1.2737677E1,7.1027217E0],"tree_param":{"num_deleted":"0","num_feature":"9","num_nodes":"13","size_leaf_vector":"1"}},{"base_weights":[-2.9593469E-3,-2.6382992E-1,7.720678E-2,-5.170263E-1,1.5761806E-1,1.2548643E-1,-2.0219406E-2,-6.6041905E-3,-4.102291E-2,2.7705333E-3,1.1699382E-2,-4.627952E-4,1.9292092E-2],"categories":[],"categories_nodes":[],"categories_segments":[],"categories_sizes":[],"default_left":[0,0,0,0,0,0,0,0,0,0,0,0,0],"id":67,"left_children":[1,3,5,7,9,11,-1,-1,-1,-1,-1,-1,-1],"loss_changes":[2.4420953E0,3.0103436E0,2.1283135E0,1.921648E0,7.342112E-2,2.879321E0,0E0,0E0,0E0,0E0,0E0,0E0,0E0],"parents":[2147483647,0,0,1,1,2,2,3,3,4,4,5,5],"right_children":[2,4,6,8,10,12,-1,-1,-1,-1,-1,-1,-1],"split_conditions":[-7.053896E-1,2.72473E0,1.5205257E0,-2.6001608E-1,-5.1788205E-1,2.2870013E-1,-2.0219406E-2,-6.6041905E-3,-4.102291E-2,2.7705333E-3,1.1699382E-2,-4.627952E-4,1.9292092E-2],"split_indices":[0,8,5,8,1,5,0,0,0,0,0,0,0],"split_type":[0,0,0,0,0,0,0,0,0,0,0,0,0],"sum_hessian":[1.1480011E2,2.6447056E1,8.835306E1,1.6379711E1,1.0067345E1,8.097481E1,7.3782477E0,7.8527646E0,8.526946E0,5.04331E0,5.0240345E0,5.3995068E1,2.697974E1],"tree_param":{"num_deleted":"0","num_feature":"9","num_nodes":"13","size_leaf_vector":"1"}},{"base_weights":[-8.01132E-3,2.6371455E-1,-1.4278917E-1,3.918936E-2,5.3572845E-1,-3.2806033E-1,2.0183264E-1,1.740558E-2,-1.5075955E-2,4.977373E-2,1.2767232E-2,7.267538E-3,-2.2513771E-2,-6.619452E-3,2.1938134E-2],"categories":[],"categories_nodes":[],"categories_segments":[],"categories_sizes":[],"default_left":[0,0,0,0,0,0,0,0,0,0,0,0,0,0,0],"id":68,"left_children":[1,3,5,7,9,11,13,-1,-1,-1,-1,-1,-1,-1,-1],"loss_changes":[4.263412E0,2.336954E0,5.0322456E0,2.4446387E0,1.9860439E0,3.0141764E0,2.2605553E0,0E0,0E0,0E0,0E0,0E0,0E0,0E0,0E0],"parents":[2147483647,0,0,1,1,2,2,3,3,4,4,5,5,6,6],"right_children":[2,4,6,8,10,12,14,-1,-1,-1,-1,-1,-1,-1,-1],"split_conditions":[-1.0653044E0,-1.0935994E0,1.2889677E0,2.2730957E-1,-1.0887072E0,-1.1043388E0,-2.2667344E-1,1.740558E-2,-1.5075955E-2,4.977373E-2,1.2767232E-2,7.267538E-3,-2.2513771E-2,-6.619452E-3,2.1938134E-2],"split_indices":[6,6,6,5,6,5,5,0,0,0,0,0,0,0,0],"split_type":[0,0,0,0,0,0,0,0,0,0,0,0,0,0,0],"sum_hessian":[1.1438648E2,3.7608086E1,7.67784E1,2.1229195E1,1.6378893E1,4.996494E1,2.6813454E1,1.112257E1,1.0106624E1,5.2386546E0,1.1140238E1,1.0213343E1,3.97516E1,1.1306021E1,1.5507433E1],"tree_param":{"num_deleted":"0","num_feature":"9","num_nodes":"15","size_leaf_vector":"1"}},{"base_weights":[7.1808964E-2,1.2526721E-1,-2.908996E-1,7.651249E-2,3.132588E-2,9.478807E-3,-2.8436376E-2,-4.2433175E-3,1.2972549E-2],"categories":[],"categories_nodes":[],"categories_segments":[],"categories_sizes":[],"default_left":[0,0,0,0,0,0,0,0,0],"id":69,"left_children":[1,3,5,7,-1,-1,-1,-1,-1],"loss_changes":[2.1980395E0,2.3436036E0,2.0595992E0,2.6886182E0,0E0,0E0,0E0,0E0,0E0],"parents":[2147483647,0,0,1,1,2,2,3,3],"right_children":[2,4,6,8,-1,-1,-1,-1,-1],"split_conditions":[1.5065782E0,8.0025405E-1,-1.9087677E-1,1.3365217E-1,3.132588E-2,9.478807E-3,-2.8436376E-2,-4.2433175E-3,1.2972549E-2],"split_indices":[5,1,2,2,0,0,0,0,0],"split_type":[0,0,0,0,0,0,0,0,0],"sum_hessian":[1.1048147E2,9.686024E1,1.3621233E1,8.9324615E1,7.5356226E0,5.1069384E0,8.514294E0,4.77437E1,4.1580917E1],"tree_param":{"num_deleted":"0","num_feature":"9","num_nodes":"9","size_leaf_vector":"1"}},{"base_weights":[1.7289648E-2,-3.446315E-2,3.0338237E-2,1.2997691E-2,-4.0384993E-2,9.98755E-3,-5.5131176E-3],"categories":[],"categories_nodes":[],"categories_segments":[],"categories_sizes":[],"default_left":[0,0,0,0,0,0,0],"id":70,"left_children":[1,3,-1,5,-1,-1,-1],"loss_changes":[3.472349E0,3.8620448E0,0E0,2.3208625E0,0E0,0E0,0E0],"parents":[2147483647,0,0,1,1,3,3],"right_children":[2,4,-1,6,-1,-1,-1],"split_conditions":[1.3191292E0,1.3152959E0,3.0338237E-2,-1.0653044E0,-4.0384993E-2,9.98755E-3,-5.5131176E-3],"split_indices":[6,6,0,6,0,0,0],"split_type":[0,0,0,0,0,0,0],"sum_hessian":[1.1213599E2,1.03951164E2,8.184826E0,9.886601E1,5.08515E0,3.906199E1,5.9804024E1],"tree_param":{"num_deleted":"0","num_feature":"9","num_nodes":"7","size_leaf_vector":"1"}},{"base_weights":[4.6963483E-2,3.7991962E-1,-8.216674E-2,2.0442009E-1,4.9293928E-2,-1.6413923E-1,2.4477828E-2,4.029466E-2,5.5877306E-4,-1.5874447E-2,5.477465E-3],"categories":[],"categories_nodes":[],"categories_segments":[],"categories_sizes":[],"default_left":[0,0,0,0,0,0,0,0,0,0,0],"id":71,"left_children":[1,3,5,7,-1,9,-1,-1,-1,-1,-1],"loss_changes":[4.8957696E0,3.1797957E0,3.9396138E0,3.0033207E0,0E0,3.0889444E0,0E0,0E0,0E0,0E0,0E0],"parents":[2147483647,0,0,1,1,2,2,3,3,5,5],"right_children":[2,4,6,8,-1,10,-1,-1,-1,-1,-1],"split_conditions":[-1.0847476E0,-2.4950649E-1,1.3179083E0,-5.9790623E-1,4.9293928E-2,2.2870013E-1,2.4477828E-2,4.029466E-2,5.5877306E-4,-1.5874447E-2,5.477465E-3],"split_indices":[6,8,6,2,0,5,0,0,0,0,0],"split_type":[0,0,0,0,0,0,0,0,0,0,0],"sum_hessian":[1.1214309E2,3.07957E1,8.134739E1,2.4916626E1,5.879073E0,7.177005E1,9.577335E0,5.2878594E0,1.9628767E1,4.589481E1,2.5875244E1],"tree_param":{"num_deleted":"0","num_feature":"9","num_nodes":"11","size_leaf_vector":"1"}},{"base_weights":[2.4845913E-2,3.0415E-1,-1.1369341E-1,-1.3949521E-2,4.3252245E-1,-3.1887624E-1,2.4755846E-1,4.4687055E-2,3.0901942E-3,7.54017E-3,-2.2214452E-2,3.5255384E-2,2.6516619E-3],"categories":[],"categories_nodes":[],"categories_segments":[],"categories_sizes":[],"default_left":[0,0,0,0,0,0,0,0,0,0,0,0,0],"id":72,"left_children":[1,3,5,-1,7,9,11,-1,-1,-1,-1,-1,-1],"loss_changes":[4.356765E0,2.913448E0,5.66726E0,0E0,5.239777E0,2.9250093E0,2.4434314E0,0E0,0E0,0E0,0E0,0E0,0E0],"parents":[2147483647,0,0,1,1,2,2,4,4,5,5,6,6],"right_children":[2,4,6,-1,8,10,12,-1,-1,-1,-1,-1,-1],"split_conditions":[-1.0653044E0,-1.4218724E0,1.330072E-1,-1.3949521E-2,-1.602553E-2,-1.096106E0,1.3084162E0,4.4687055E-2,3.0901942E-3,7.54017E-3,-2.2214452E-2,3.5255384E-2,2.6516619E-3],"split_indices":[6,7,6,0,7,5,6,0,0,0,0,0,0],"split_type":[0,0,0,0,0,0,0,0,0,0,0,0,0],"sum_hessian":[1.1069995E2,3.630711E1,7.4392845E1,6.338909E0,2.9968203E1,4.7519917E1,2.6872927E1,1.2725415E1,1.7242786E1,9.971921E0,3.7547997E1,7.2336526E0,1.9639273E1],"tree_param":{"num_deleted":"0","num_feature":"9","num_nodes":"13","size_leaf_vector":"1"}},{"base_weights":[-4.4275384E-2,1.0733419E-2,-3.9909136E-1,-1.037342E-1,2.906793E-1,-8.52392E-3,-3.192399E-2,-1.0728343E-2,6.108335E-3,4.175197E-2,2.5685679E-3],"categories":[],"categories_nodes":[],"categories_segments":[],"categories_sizes":[],"default_left":[0,0,0,0,0,0,0,0,0,0,0],"id":73,"left_children":[1,3,5,7,9,-1,-1,-1,-1,-1,-1],"loss_changes":[2.1564918E0,3.120578E0,7.0259E-1,1.7585015E0,3.637524E0,0E0,0E0,0E0,0E0,0E0,0E0],"parents":[2147483647,0,0,1,1,2,2,3,3,4,4],"right_children":[2,4,6,8,10,-1,-1,-1,-1,-1,-1],"split_conditions":[1.5065782E0,2.2870013E-1,9.043155E-1,9.1613674E-1,-1.0862513E0,-8.52392E-3,-3.192399E-2,-1.0728343E-2,6.108335E-3,4.175197E-2,2.5685679E-3],"split_indices":[5,5,3,3,3,0,0,0,0,0,0],"split_type":[0,0,0,0,0,0,0,0,0,0,0],"sum_hessian":[1.09267845E2,9.544093E1,1.3826911E1,6.818861E1,2.7252323E1,7.9484143E0,5.878496E0,4.5778633E1,2.2409975E1,7.561833E0,1.9690489E1],"tree_param":{"num_deleted":"0","num_feature":"9","num_nodes":"11","size_leaf_vector":"1"}},{"base_weights":[1.9396456E-2,-1.432509E-1,1.9207607E-1,8.061725E-2,-3.3991265E-1,4.676642E-1,-2.0031886E-1,2.599296E-2,-2.2145065E-3,-1.2426792E-2,-3.2878947E-2,7.400992E-3,3.6963172E-2,-2.2336114E-2,1.4545194E-2],"categories":[],"categories_nodes":[],"categories_segments":[],"categories_sizes":[],"default_left":[0,0,0,0,0,0,0,0,0,0,0,0,0,0,0],"id":74,"left_children":[1,3,5,7,9,11,13,-1,-1,-1,-1,-1,-1,-1,-1],"loss_changes":[3.1693547E0,2.5888052E0,6.007451E0,1.5600989E0,7.411504E-1,2.705514E0,2.945562E0,0E0,0E0,0E0,0E0,0E0,0E0,0E0,0E0],"parents":[2147483647,0,0,1,1,2,2,3,3,4,4,5,5,6,6],"right_children":[2,4,6,8,10,12,14,-1,-1,-1,-1,-1,-1,-1,-1],"split_conditions":[-2.0484197E-1,-1.0771472E0,1.0880915E0,-2.7113008E-1,7.8521454E-1,6.346478E-1,-2.555323E-1,2.599296E-2,-2.2145065E-3,-1.2426792E-2,-3.2878947E-2,7.400992E-3,3.6963172E-2,-2.2336114E-2,1.4545194E-2],"split_indices":[5,5,5,8,1,5,8,0,0,0,0,0,0,0,0],"split_type":[0,0,0,0,0,0,0,0,0,0,0,0,0,0,0],"sum_hessian":[1.1086544E2,5.717891E1,5.3686527E1,2.7015795E1,3.0163115E1,3.1424528E1,2.2262001E1,5.281439E0,2.1734356E1,2.4809135E1,5.3539786E0,1.5145188E1,1.6279339E1,1.4885727E1,7.376274E0],"tree_param":{"num_deleted":"0","num_feature":"9","num_nodes":"15","size_leaf_vector":"1"}},{"base_weights":[-6.5347375E-3,-6.469859E-2,2.1529236E-1,2.1137284E-2,-2.966997E-1,8.3983116E-2,2.8957097E-2,-1.8094346E-2,6.375139E-3,-2.5576774E-2,1.1534164E-2,-7.622324E-3,1.3234693E-2],"categories":[],"categories_nodes":[],"categories_segments":[],"categories_sizes":[],"default_left":[0,0,0,0,0,0,0,0,0,0,0,0,0],"id":75,"left_children":[1,3,5,7,9,11,-1,-1,-1,-1,-1,-1,-1],"loss_changes":[1.456438E0,1.7855091E0,1.0720289E0,2.741149E0,2.8593717E0,8.267384E-1,0E0,0E0,0E0,0E0,0E0,0E0,0E0],"parents":[2147483647,0,0,1,1,2,2,3,3,4,4,5,5],"right_children":[2,4,6,8,10,12,-1,-1,-1,-1,-1,-1,-1],"split_conditions":[-2.4891055E-1,4.5723978E-1,-1.1517951E-1,-7.053896E-1,6.79127E-1,-5.165742E-1,2.8957097E-2,-1.8094346E-2,6.375139E-3,-2.5576774E-2,1.1534164E-2,-7.622324E-3,1.3234693E-2],"split_indices":[8,0,0,0,7,1,0,0,0,0,0,0,0],"split_type":[0,0,0,0,0,0,0,0,0,0,0,0,0],"sum_hessian":[1.1080228E2,8.8345985E1,2.2456293E1,6.5150475E1,2.319551E1,1.7405619E1,5.0506754E0,1.3637887E1,5.1512585E1,1.6502905E1,6.6926064E0,7.6081023E0,9.797516E0],"tree_param":{"num_deleted":"0","num_feature":"9","num_nodes":"13","size_leaf_vector":"1"}},{"base_weights":[-1.9872008E-2,3.9931774E-1,-1.4974938E-1,-4.5588072E-3,5.240436E-1,-2.8915122E-1,1.6882333E-1,1.0526101E-2,3.5144012E-2,-8.400691E-3,-3.1105114E-2,2.7228653E-2,-1.5629834E-3],"categories":[],"categories_nodes":[],"categories_segments":[],"categories_sizes":[],"default_left":[0,0,0,0,0,0,0,0,0,0,0,0,0],"id":76,"left_children":[1,3,5,-1,7,9,11,-1,-1,-1,-1,-1,-1],"loss_changes":[6.0722513E0,1.6625719E0,3.825406E0,0E0,1.0402608E0,2.2962275E0,2.0105624E0,0E0,0E0,0E0,0E0,0E0,0E0],"parents":[2147483647,0,0,1,1,2,2,4,4,5,5,6,6],"right_children":[2,4,6,-1,8,10,12,-1,-1,-1,-1,-1,-1],"split_conditions":[-1.0887072E0,-1.1052728E0,1.330072E-1,-4.5588072E-3,-1.0824513E0,1.0667466E0,-4.2569867E-1,1.0526101E-2,3.5144012E-2,-8.400691E-3,-3.1105114E-2,2.7228653E-2,-1.5629834E-3],"split_indices":[6,6,6,0,3,5,0,0,0,0,0,0,0],"split_type":[0,0,0,0,0,0,0,0,0,0,0,0,0],"sum_hessian":[1.0943521E2,2.5395288E1,8.4039925E1,5.203019E0,2.019227E1,5.8523445E1,2.5516481E1,8.125133E0,1.2067138E1,4.4014343E1,1.45091E1,8.267894E0,1.7248587E1],"tree_param":{"num_deleted":"0","num_feature":"9","num_nodes":"13","size_leaf_vector":"1"}},{"base_weights":[1.3162562E-2,3.035094E-1,-7.906943E-2,1.336956E-1,4.1845173E-2,-1.4599507E-1,2.7387712E-2,2.2784594E-2,-1.0298266E-2,-9.48974E-3,1.5183516E-2],"categories":[],"categories_nodes":[],"categories_segments":[],"categories_sizes":[],"default_left":[0,0,0,0,0,0,0,0,0,0,0],"id":77,"left_children":[1,3,5,7,-1,9,-1,-1,-1,-1,-1],"loss_changes":[2.9985962E0,2.332386E0,3.6496682E0,2.4626899E0,0E0,1.5874356E0,0E0,0E0,0E0,0E0,0E0],"parents":[2147483647,0,0,1,1,2,2,3,3,5,5],"right_children":[2,4,6,8,-1,10,-1,-1,-1,-1,-1],"split_conditions":[-1.0887072E0,-1.0935994E0,1.3191292E0,1.3084757E-1,4.1845173E-2,1.3856869E0,2.7387712E-2,2.2784594E-2,-1.0298266E-2,-9.48974E-3,1.5183516E-2],"split_indices":[6,6,6,2,0,7,0,0,0,0,0],"split_type":[0,0,0,0,0,0,0,0,0,0,0],"sum_hessian":[1.10078384E2,2.5985418E1,8.409297E1,2.065898E1,5.3264384E0,7.667365E1,7.419319E0,1.0429898E1,1.0229082E1,7.039475E1,6.2788944E0],"tree_param":{"num_deleted":"0","num_feature":"9","num_nodes":"11","size_leaf_vector":"1"}},{"base_weights":[6.7412825E-3,2.1430585E-1,-1.00751504E-1,5.9128445E-2,3.8763426E-2,-2.7633655E-1,2.1039452E-1,-2.0886239E-2,1.0812401E-2,-5.5133663E-3,-2.305836E-2,3.317564E-2,1.1516014E-3],"categories":[],"categories_nodes":[],"categories_segments":[],"categories_sizes":[],"default_left":[0,0,0,0,0,0,0,0,0,0,0,0,0],"id":78,"left_children":[1,3,5,7,-1,9,11,-1,-1,-1,-1,-1,-1],"loss_changes":[2.4761717E0,3.2493548E0,4.054981E0,2.3930607E0,0E0,1.3979175E0,2.2734842E0,0E0,0E0,0E0,0E0,0E0,0E0],"parents":[2147483647,0,0,1,1,2,2,3,3,5,5,6,6],"right_children":[2,4,6,8,-1,10,12,-1,-1,-1,-1,-1,-1],"split_conditions":[-1.0653044E0,-2.5033042E-1,1.330072E-1,-1.1025691E0,3.8763426E-2,1.09696545E-1,1.3084162E0,-2.0886239E-2,1.0812401E-2,-5.5133663E-3,-2.305836E-2,3.317564E-2,1.1516014E-3],"split_indices":[6,8,6,6,0,6,6,0,0,0,0,0,0],"split_type":[0,0,0,0,0,0,0,0,0,0,0,0,0],"sum_hessian":[1.0901317E2,3.685461E1,7.215856E1,2.973462E1,7.119993E0,4.619935E1,2.5959213E1,6.958162E0,2.2776457E1,2.517571E1,2.1023638E1,6.8505297E0,1.9108683E1],"tree_param":{"num_deleted":"0","num_feature":"9","num_nodes":"13","size_leaf_vector":"1"}},{"base_weights":[-1.6838947E-2,2.84936E-1,-1.0448603E-1,5.3915894E-1,-8.444281E-3,-2.4663728E-1,2.1637577E-1,9.682353E-3,4.1340273E-2,-2.644121E-2,2.0966869E-2,-1.9659718E-2,3.3226875E-3,3.640254E-2,9.726207E-4],"categories":[],"categories_nodes":[],"categories_segments":[],"categories_sizes":[],"default_left":[0,0,0,0,0,0,0,0,0,0,0,0,0,0,0],"id":79,"left_children":[1,3,5,7,9,11,13,-1,-1,-1,-1,-1,-1,-1,-1],"loss_changes":[2.873296E0,1.8292384E0,3.8865995E0,1.1440797E0,2.9692628E0,2.7199554E0,2.6393435E0,0E0,0E0,0E0,0E0,0E0,0E0,0E0,0E0],"parents":[2147483647,0,0,1,1,2,2,3,3,4,4,5,5,6,6],"right_children":[2,4,6,8,10,12,14,-1,-1,-1,-1,-1,-1,-1,-1],"split_conditions":[-1.0887072E0,2.2730957E-1,1.2889677E0,9.004039E-1,1.0837656E0,6.393635E-1,1.3088626E0,9.682353E-3,4.1340273E-2,-2.644121E-2,2.0966869E-2,-1.9659718E-2,3.3226875E-3,3.640254E-2,9.726207E-4],"split_indices":[6,5,6,3,5,5,6,0,0,0,0,0,0,0,0],"split_type":[0,0,0,0,0,0,0,0,0,0,0,0,0,0,0],"sum_hessian":[1.06506874E2,2.3464846E1,8.304203E1,1.2122546E1,1.1342299E1,5.7707314E1,2.5334717E1,6.2674704E0,5.8550754E0,5.0107336E0,6.331566E0,3.9133286E1,1.857403E1,6.29111E0,1.9043608E1],"tree_param":{"num_deleted":"0","num_feature":"9","num_nodes":"15","size_leaf_vector":"1"}},{"base_weights":[-4.2213406E-3,-1.01526305E-1,2.7219662E-1,1.169785E-1,-3.748374E-1,-1.8330133E-2,4.307003E-1,4.715839E-4,3.3181544E-2,-2.6674733E-2,-2.2658263E-3,4.175003E-2,7.214228E-3],"categories":[],"categories_nodes":[],"categories_segments":[],"categories_sizes":[],"default_left":[0,0,0,0,0,0,0,0,0,0,0,0,0],"id":80,"left_children":[1,3,5,7,9,-1,11,-1,-1,-1,-1,-1,-1],"loss_changes":[2.9218554E0,4.840314E0,3.022141E0,2.6625652E0,1.8537984E0,0E0,2.5572767E0,0E0,0E0,0E0,0E0,0E0,0E0],"parents":[2147483647,0,0,1,1,2,2,3,3,4,4,6,6],"right_children":[2,4,6,8,10,-1,12,-1,-1,-1,-1,-1,-1],"split_conditions":[1.2768807E-1,1.0021557E-1,-5.248459E-1,-2.4736017E-1,1.4817351E-1,-1.8330133E-2,-5.1029843E-1,4.715839E-4,3.3181544E-2,-2.6674733E-2,-2.2658263E-3,4.175003E-2,7.214228E-3],"split_indices":[6,6,1,8,2,0,1,0,0,0,0,0,0],"split_type":[0,0,0,0,0,0,0,0,0,0,0,0,0],"sum_hessian":[1.0660447E2,7.931619E1,2.728827E1,4.439533E1,3.4920868E1,5.163899E0,2.212437E1,3.7947E1,6.4483304E0,2.3153805E1,1.1767062E1,8.379975E0,1.3744396E1],"tree_param":{"num_deleted":"0","num_feature":"9","num_nodes":"13","size_leaf_vector":"1"}},{"base_weights":[5.7173364E-2,3.7502256E-1,-3.794667E-3,-2.5176315E-3,5.867173E-1,2.372425E-1,-1.2307183E-1,4.594208E-2,8.172045E-3,3.396439E-2,4.174812E-3,-1.361309E-2,8.031776E-3],"categories":[],"categories_nodes":[],"categories_segments":[],"categories_sizes":[],"default_left":[0,0,0,0,0,0,0,0,0,0,0,0,0],"id":81,"left_children":[1,3,5,-1,7,9,11,-1,-1,-1,-1,-1,-1],"loss_changes":[2.0418649E0,1.5564482E0,2.597659E0,0E0,1.4525554E0,1.9764161E0,2.6011605E0,0E0,0E0,0E0,0E0,0E0,0E0],"parents":[2147483647,0,0,1,1,2,2,4,4,5,5,6,6],"right_children":[2,4,6,-1,8,10,12,-1,-1,-1,-1,-1,-1],"split_conditions":[-1.0926784E0,-4.2026025E-1,8.5928604E-2,-2.5176315E-3,2.1549077E-1,-6.523805E-1,2.2870013E-1,4.594208E-2,8.172045E-3,3.396439E-2,4.174812E-3,-1.361309E-2,8.031776E-3],"split_indices":[3,0,6,0,5,5,5,0,0,0,0,0,0],"split_type":[0,0,0,0,0,0,0,0,0,0,0,0,0],"sum_hessian":[1.0429332E2,1.5956254E1,8.833707E1,5.5554295E0,1.0400825E1,2.891539E1,5.942168E1,5.171902E0,5.2289224E0,6.5796356E0,2.2335754E1,3.8969547E1,2.0452133E1],"tree_param":{"num_deleted":"0","num_feature":"9","num_nodes":"13","size_leaf_vector":"1"}},{"base_weights":[1.8591523E-2,8.151005E-2,-3.923157E-1,2.7527519E-2,3.6233645E-2,2.933493E-3,-3.2678884E-2,-1.5514963E-3,2.5672529E-2],"categories":[],"categories_nodes":[],"categories_segments":[],"categories_sizes":[],"default_left":[0,0,0,0,0,0,0,0,0],"id":82,"left_children":[1,3,5,7,-1,-1,-1,-1,-1],"loss_changes":[2.8521218E0,3.2931406E0,1.7652769E0,2.5505009E0,0E0,0E0,0E0,0E0,0E0],"parents":[2147483647,0,0,1,1,2,2,3,3],"right_children":[2,4,6,8,-1,-1,-1,-1,-1],"split_conditions":[1.5086061E0,1.3191292E0,-2.628398E-1,